6217 25
0 -1.82367 -2.59407 2.42171 -2.49171 -2.69507 2.88204 0.38357 1.32087 -2.52246 -2.92681 -0.64841 -1.41801 2.93071 2.1813 0.83225 -2.83837 -1.96692 -1.64678 -2.17956 -2.61066 0.37346 2.59547 1.17467 -1.99864 -2.36178
1 0.55681 -2.27956 -2.9961 -2.65313 -2.82607 1.45004 2.78803 2.74578 2.28418 0.77748 -2.60401 -1.6023 0.44175 1.11411 -1.46361 1.44833 1.00163 -0.7765 -2.07233 -2.788 1.62381 2.36751 -1.39371 0.94461 -0.11234
2 1.14328 -0.08031 -1.43244 0.40785 -0.41895 -1.94163 -1.31395 -2.2279 -1.31598 2.69984 -0.61522 -1.69011 1.36896 2.37385 2.7978 -1.95287 -2.1528 2.09283 0.36428 -0.07805 0.52218 0.11524 0.61869 -1.24355 -1.28919
3 1.17092 -0.72026 -2.59579 -1.96882 1.84186 -2.73848 -0.92604 -0.5436 0.85232 0.28023 0.05285 0.54614 -2.93547 -2.48062 2.08523 1.29471 2.49757 1.50179 1.28744 1.62509 0.48137 -2.59712 1.23119 -2.58371 1.26214
4 -0.64985 -1.10055 1.38169 1.12442 -0.24316 1.45616 1.69613 0.86494 2.24135 -2.14679 -0.44783 -2.26164 2.94461 -2.85654 -2.03438 2.84907 1.27143 -2.25054 -1.80661 0.57477 0.22799 1.32418 -1.86418 -2.3106 -1.0281
5 1.49161 1.18124 -0.96789 0.3826 -2.41307 2.16385 -1.74283 -1.15205 -2.2758 -0.49504 -0.35722 -2.18464 0.96604 -0.79219 2.60759 2.10485 1.56058 -1.0038 0.95594 -2.39048 -2.85067 2.99405 2.78071 -0.94238 -0.12326
6 1.69549 0.33129 -0.22293 0.12785 0.07984 -1.47161 1.18249 -2.06288 0.97025 -2.22025 -1.54705 -2.7134 -2.24552 -0.84226 2.11628 2.36483 -2.1294 2.79216 2.68172 -2.58787 1.44366 2.13192 -2.10347 -2.00719 -0.59282
7 0.49596 -1.07614 1.57652 -1.81879 1.39859 2.98508 0.83043 2.41812 0.48728 0.79789 2.6668 -2.01064 0.96079 -0.7202 2.10938 2.2952 -1.35477 1.34742 2.18792 0.94872 -0.81481 -1.78517 -1.99866 0.53364 1.87453
8 0.01399 1.28491 2.75724 2.68428 0.43275 -2.56003 -0.12795 0.76284 -0.09573 -0.24382 -0.14007 -1.34646 -0.52415 -1.88672 -1.51976 -1.51678 2.04334 2.4658 1.98915 1.66637 0.53048 -0.45383 0.56361 0.93178 -1.17508
9 0.53308 -2.77781 -2.62656 -0.44005 2.10243 2.99328 -1.53241 2.44644 1.64009 2.18755 1.54469 -2.94078 -2.93822 -0.68948 0.59132 1.22477 2.32803 0.55513 -0.69538 0.13303 -1.42683 0.88155 2.19245 -0.92596 -2.7304
10 -2.95061 0.56958 2.07424 -0.04594 -0.82213 -0.10818 1.00353 1.90975 0.3361 0.03224 -0.11928 -2.42445 2.57075 -2.57113 -1.46018 -0.06016 2.37592 2.31757 1.68134 -2.46131 0.12741 -1.11668 1.50587 -2.25738 1.04174
11 0.51453 -2.37543 -2.1027 0.66775 2.54132 -2.68502 2.15442 -1.82312 1.963 -1.03539 -0.09896 2.0225 -1.74339 2.18287 -2.93224 -1.56463 1.07789 1.45497 1.59522 1.24374 2.01259 0.80412 -2.77108 -0.88578 -0.94462
12 1.69237 1.02248 0.94248 -0.33165 -2.26414 -2.17979 0.73356 2.99826 -2.93862 -1.79641 1.18246 0.37881 -2.46649 -1.05273 0.96533 0.98327 -1.73617 -0.04717 2.02735 -0.03586 2.38328 -0.87246 -0.79335 2.26055 0.49339
13 -1.58429 -1.37637 -0.08712 2.65026 -1.50146 2.51928 2.78619 -2.04601 -2.29716 -2.22859 -2.29204 -1.37364 -2.8388 2.30239 -2.43994 0.53235 1.5287 -0.71811 -1.54029 -2.3131 2.14372 0.11206 2.7017 0.14132 2.77556
14 -1.6783 -0.17089 -0.87542 1.20052 1.20534 1.82092 -0.30893 1.20125 2.74637 1.05767 -2.55743 1.67015 -1.74892 -2.1998 -0.62556 0.6311 1.76218 2.69416 -1.10698 2.55208 1.7122 0.22412 -1.89458 2.21279 -2.20239
15 -1.00106 0.82649 1.66009 1.44137 2.31655 2.05051 -2.26385 2.40121 0.53176 -1.9156 1.2186 2.95889 0.2562 -0.60658 -1.73368 -0.33159 1.97027 -0.03797 -1.70569 1.57814 1.59066 -0.56615 -0.84265 -2.80179 0.0811
16 -1.08096 2.88488 1.78384 -2.11465 1.36138 1.74876 0.59916 -1.39799 -2.12807 0.12845 -0.88404 -0.4877 -1.43889 -2.28757 1.71352 0.91972 0.65462 -1.34496 -1.69371 -0.424 1.89573 -0.52692 -0.49436 0.60393 -0.14389
17 2.20531 -1.7049 -0.82076 1.35051 0.43629 1.03533 -2.90992 -0.73142 1.97525 -0.46735 -1.61639 -2.54025 2.0551 -2.18722 1.10149 1.37609 1.82304 -2.35663 1.8588 -2.92706 -1.28596 1.80829 -0.20515 1.27617 -2.14261
18 1.63798 1.48564 -0.31291 2.51772 2.31219 2.67421 1.09298 0.9165 0.09252 -0.48369 2.28062 2.96905 -2.94003 -1.51185 -2.76549 -0.29754 -1.44165 -0.3735 -1.29826 0.25038 -1.89198 -1.37975 0.62762 0.13306 1.63774
19 1.65843 1.11348 1.82396 -1.77261 -1.21839 -0.26641 -2.74115 -1.55164 2.34689 -2.89545 -1.85411 0.01875 -0.41506 -1.22426 0.71033 0.67349 -1.04065 1.8231 0.87096 -1.67614 -2.68732 -1.79388 2.15852 0.01252 1.85284
20 -0.69153 -1.04331 1.28843 0.19218 -2.61983 -0.32464 -1.86802 -1.99807 2.4786 1.38725 0.64357 0.08916 -0.94064 2.61062 1.7902 -0.21595 -0.08075 -0.6588 2.83418 1.28518 -0.83947 -0.16475 1.46035 -2.19469 -2.27734
21 -2.31586 -2.10531 0.03892 2.46964 1.45894 0.8114 0.42691 -2.9695 0.41117 -1.54242 2.17309 -0.33525 0.73666 1.6374 -0.19751 -0.84684 -0.78345 -1.62783 0.73366 -2.18914 0.44943 -2.55726 -0.3596 -2.51084 -0.80008
22 2.10565 2.11461 1.03749 -1.58492 2.77542 1.00677 1.61174 -1.06235 0.16202 0.98239 -0.71731 0.80425 -1.4157 1.13815 -1.65549 -2.38044 0.74634 1.83238 2.67979 -0.79323 0.11466 -2.82494 -1.88774 -0.8371 -1.55776
23 -0.793 -1.81387 -1.79264 2.02413 2.41315 -1.16993 -1.59888 0.84697 1.89255 -0.60333 2.87614 -2.68393 2.772 1.92081 -0.11998 0.91258 2.00411 0.21306 2.24343 0.49057 -1.74247 -2.87576 2.39382 -1.67106 0.91558
24 1.73154 0.25086 -1.08957 0.63182 -2.85941 0.39024 -1.79698 2.77579 1.36872 2.87035 -2.98127 -0.02976 -2.06381 0.31067 1.9248 1.26895 1.92973 2.77301 -0.01933 -0.45397 -1.60037 -0.23763 -1.78013 2.88224 0.56259
25 0.13142 -2.85186 -1.10447 -2.8032 -1.9579 -2.00565 -2.9667 1.16922 -0.18432 -2.16546 -0.5137 -1.5084 0.20136 -0.19784 -0.94799 -2.00518 -0.79877 2.01244 -2.04727 -2.26566 2.54251 -1.75114 -0.07964 -1.25893 -0.74805
26 1.20984 -2.71661 0.17698 2.14598 2.21867 -1.22961 1.45215 -2.70461 0.35821 -1.78252 -1.79802 -2.67484 -0.54088 2.82937 -0.57462 -0.81487 1.27932 -2.41511 -1.75634 0.66903 0.39161 -0.2779 -0.89356 0.91441 -2.7574
27 2.2753 1.95699 -2.87418 -1.33458 2.51004 -0.75048 1.79209 -1.35255 0.89991 -0.60605 1.76927 -2.90923 2.83119 -0.9661 0.59219 -1.47331 -1.81672 -2.47007 0.88368 2.6394 1.01054 0.48332 0.42062 0.11021 0.7708
28 0.62842 0.31977 -0.75589 -2.50805 -2.1609 0.35648 0.92972 1.72195 0.45961 -1.16549 -1.21671 0.35574 1.81259 -1.36232 2.25628 1.31916 1.16325 -0.66397 2.37182 -0.18789 -2.21878 -0.84974 0.88917 2.64075 -2.62367
29 -0.06142 -2.83591 -1.1602 -0.50234 1.91854 -1.57565 0.58926 -0.38041 0.85704 -0.14173 2.00742 0.15624 1.30364 1.72593 -2.47793 1.76154 -0.71631 2.0857 -2.90143 -2.49906 -1.66123 -0.7219 -1.77361 -0.06638 -0.96073
30 -1.00308 -1.71573 1.38816 -1.66762 -1.3861 0.36282 -1.76633 -0.95381 1.47594 -0.14352 -0.18882 0.15368 -0.86939 -1.2791 0.56295 -1.86419 0.936 1.8182 -2.92292 -2.06534 -2.37316 -1.65487 1.36007 1.82972 2.54845
31 1.86788 -2.54572 -1.70449 0.89996 -2.1845 1.76941 -2.80863 0.3808 -2.28117 2.07298 -0.44981 -2.47376 -1.62952 -2.99609 -1.57452 -2.06919 0.30846 0.89253 2.10939 -1.59629 -0.437 -2.32044 0.56334 -0.8729 -0.43182
32 -0.73602 -2.90623 0.72036 2.48084 0.84015 -1.60946 1.84118 -1.20948 -0.36834 -2.92488 -1.04159 -2.79379 -2.24104 -1.88574 0.57053 0.94875 0.87861 -1.81725 2.95894 -1.77647 1.59328 0.62663 -2.99005 1.33167 1.45671
33 0.81593 -2.73752 1.49452 -0.76294 -2.86607 1.87318 0.72304 1.25078 -0.00612 2.93734 1.48814 -0.10776 1.06374 2.06135 -0.43648 -1.15726 2.03878 -0.84779 0.42722 -0.53093 -1.34316 2.87948 -1.79177 0.84596 -1.98106
34 2.41839 -1.63277 -1.96769 2.33251 0.34878 2.41818 -0.59089 -2.39893 -2.59827 -2.72871 -1.74418 2.89059 -2.47802 2.18179 1.45165 0.20989 2.8689 -0.58742 -0.14936 -2.87009 -2.90762 -2.52687 -2.63744 1.01629 -2.23391
35 -0.90217 2.28915 0.11703 -0.64302 1.19136 -2.56086 -0.69745 -2.72703 1.97726 -0.8949 -1.09745 -2.21495 -1.74537 1.2182 1.228 -2.06323 -1.759 1.25173 -1.94766 -1.94059 -0.1552 1.93301 1.22003 -0.38228 0.19503
36 2.38334 -0.04229 0.97545 2.98834 -0.52071 -0.90425 -1.17618 1.19632 0.66822 0.64066 1.49418 1.21404 -2.24612 2.26525 0.54244 1.88308 2.22991 -0.54777 -2.75886 1.79561 0.2294 -0.73324 -2.89074 2.89506 1.35265
37 0.4162 -1.22652 -1.00096 2.42416 -0.60529 2.74037 -0.36876 0.7362 1.4974 0.94253 0.48255 -0.65168 2.20415 0.61188 -2.84846 1.91049 -2.47499 -1.94608 2.64715 1.23373 2.13683 0.49543 1.32266 -0.10453 2.51135
38 1.79986 0.575 -0.02415 -1.65467 -1.74328 -2.0627 -0.268 0.52473 2.27833 -2.50504 -1.79631 2.70656 2.0022 2.56878 -0.70374 -1.99951 2.2581 2.8117 -1.28405 0.36524 2.65176 -2.71865 0.18784 -0.78631 -0.38467
39 -1.95371 0.11122 -2.7696 1.47623 2.0864 -0.36351 0.78278 -0.9796 -2.00222 -0.69903 1.65984 0.06218 -2.03031 2.19377 -2.58176 1.4904 2.87137 -2.87623 2.96708 0.20082 -2.90472 -1.70443 -1.08206 0.32947 -0.66114
40 -1.97192 -1.48296 0.80141 -0.06878 1.79232 -2.08367 1.88462 -0.61613 -1.57033 2.07643 2.38171 -1.22627 1.19849 -0.40554 2.18995 2.56641 0.93365 2.13397 -0.04271 -2.90788 0.57536 0.48785 0.60878 -0.19608 2.1637
41 -2.37825 -2.42252 -2.57975 -2.04909 1.58818 0.76512 -0.9492 -1.54771 -0.82795 2.05444 -1.41437 -0.23204 -0.39665 1.37078 -1.5539 0.33833 -1.30592 -0.6334 0.13468 2.6289 2.90626 2.29565 0.26291 0.6436 0.89904
42 2.9579 2.8104 -1.56389 1.1831 -2.4996 2.70608 -2.21322 -0.88775 1.38101 -2.34631 -2.45076 1.98552 -1.56016 1.46368 -0.34982 0.73867 -0.73587 2.20587 -0.97903 -2.85506 -0.50131 2.24777 -2.21409 0.67904 -0.91881
43 -0.101 -2.29851 -1.19804 0.7103 1.29869 -1.50523 2.68239 2.65086 -0.40624 -0.75315 2.32714 1.64287 -0.56882 0.93758 -0.66974 2.19797 -0.25201 -0.67028 -1.88411 -0.68159 0.71567 -1.47627 0.11009 0.41913 0.04283
44 0.46913 -1.3113 0.27354 2.14196 -2.70653 1.94668 1.73081 2.61144 -2.02744 -2.93288 -2.53892 0.06471 1.82773 -2.87722 1.02745 -0.59022 -2.2967 -1.73011 -2.41911 -2.30218 -2.27839 -2.11799 2.59994 -1.21119 1.80385
45 -2.98387 -0.78027 -2.00344 0.36328 -0.33148 -0.11862 1.47853 -0.44373 -0.18907 0.582 -1.10566 -2.43814 -1.31113 -2.30725 -2.73609 -1.80485 2.97076 0.98672 -0.49369 0.03033 -1.83682 -1.11143 -2.6329 -0.73891 0.8256
46 1.81783 -2.44114 -1.93342 -1.89926 -2.05674 2.69615 0.12908 -2.51756 -2.39483 -0.48772 0.26766 0.7618 2.44483 2.09009 0.536 -1.73236 -1.44503 -1.717 -0.26564 -2.31882 1.76866 -1.12481 0.85727 1.78033 0.81348
47 -1.31744 1.56152 1.5621 -2.16397 0.34249 1.71989 0.28152 -2.8152 2.14679 -1.2264 -2.41018 2.49228 -1.39025 2.70921 -0.68452 -2.01875 1.2165 1.05747 0.91286 0.05478 2.17502 2.80395 -1.154 -2.40191 2.15235
48 2.23322 -1.09853 0.88909 2.62664 1.13947 0.5745 -0.57183 1.86902 0.63054 2.45033 1.22149 2.01879 -1.32294 2.8627 -0.20466 0.11841 0.30782 0.6524 -1.85334 1.84172 1.53125 -0.30195 1.75994 1.78303 -2.05612
49 1.27894 -1.73719 2.37114 0.00522 2.63693 -0.67127 2.22132 1.3824 0.1506 -1.15523 2.73533 2.55355 2.68916 -1.2108 -2.86391 -1.95064 -0.60946 0.49629 0.09686 -2.25356 2.2714 -0.56966 2.4467 -1.04931 2.09954
50 2.65835 -2.11794 -2.86773 1.03567 1.26698 1.5028 0.70361 -1.30659 -1.49211 2.55192 -1.74165 0.50008 -0.57703 -2.97629 1.28416 2.46577 -0.19065 1.16875 -0.34454 1.99645 -2.57748 -0.6 2.66908 -1.57088 -2.76976
51 -1.10155 -1.97318 -0.6726 -0.29771 0.96666 -0.50669 -1.86179 -2.52141 0.11158 -1.15797 0.94268 -1.66177 1.97099 0.07852 -0.59333 -0.36297 2.58576 1.06934 2.93096 0.22932 -1.732 -0.56231 0.17928 -1.49931 -2.39063
52 0.78048 0.48213 -2.32805 -2.06624 -2.11819 1.25259 -2.55557 1.90504 -0.47636 2.28757 -0.96534 -0.01849 -1.12082 2.00356 2.39712 -0.69257 0.86576 -0.2361 -1.16946 -1.99846 1.50722 -1.16358 0.3414 -1.60854 0.62813
53 -1.75687 0.66912 -2.48288 -2.74135 -0.03847 -0.4332 -1.48575 -1.57103 2.902 2.51152 -2.41842 0.10177 -2.70383 -1.74326 -0.01042 -1.14946 1.07816 2.73641 1.2315 2.13486 0.7562 -0.32121 2.86547 -1.33346 -0.89914
54 2.30947 -1.04125 0.96771 1.07297 0.15807 -2.14974 0.95373 0.30556 -2.38552 0.23428 -0.67765 0.39901 1.62282 1.01714 2.73969 -1.11473 -2.1954 2.79933 -1.87884 2.90968 1.78623 1.0997 -1.07176 2.87834 -0.01535
55 2.50638 2.2799 -2.15392 1.73814 0.87999 -1.61541 -0.77557 1.93574 1.20645 -0.17842 -0.45761 -0.8942 1.19821 -0.88697 -2.57551 -1.03502 2.73617 2.77494 -0.80545 0.67837 -1.30519 0.81797 -2.29855 -1.01598 1.26229
56 -0.07546 2.27997 2.52962 1.90786 -0.11548 1.07103 0.14673 0.21687 -2.67609 -0.22251 0.97276 -1.96197 1.40553 1.66907 -1.44037 -2.79503 0.35642 -2.43657 -1.47982 0.83282 2.18284 -2.41989 0.41079 -1.62187 2.01842
57 -2.55817 -1.03791 2.44485 1.43041 0.89126 -1.02256 1.86231 0.24144 1.39873 -2.14606 -0.89082 -1.55419 -2.24726 0.44507 2.42749 -1.71368 -1.06945 2.05337 1.59248 0.96359 0.05892 -2.64713 2.35932 -1.48425 -2.16173
58 0.45023 -1.59269 0.00447 2.87931 0.03055 -0.61098 -1.47973 -0.55792 -1.23946 2.64241 -2.53229 2.8791 0.0333 -2.88787 -2.66004 2.71944 2.9553 0.44252 1.01737 -2.96195 1.90034 0.93783 -1.03737 -1.65961 -0.17022
59 -2.8228 -1.7534 1.54493 -1.12256 2.72137 2.07588 -2.86429 0.69734 0.02435 0.71689 0.92473 -0.40361 2.80198 0.25258 -1.57813 0.7757 1.48544 -1.10941 -0.75765 -2.24253 1.75367 2.54355 0.68691 -1.96332 -2.7037
60 2.91183 2.1717 1.49235 -1.2449 2.77724 -2.31516 2.33524 -1.71475 -0.04942 -1.81963 1.61612 1.45376 -1.33115 1.31917 0.10846 -0.15927 2.61437 -2.85433 -2.54695 0.6072 1.60693 -2.20482 -1.79035 2.33912 2.41064
61 -2.57843 2.74495 2.75307 2.992 2.10991 -2.63219 0.59823 2.29307 -2.79267 1.13377 -1.7459 -0.10628 2.50057 0.00915 -2.25316 1.90858 2.99035 2.23292 -1.09057 1.23305 1.41091 -2.31716 0.68114 -0.47286 -0.8654
62 0.30678 1.47331 2.05033 -2.59203 0.80691 -0.98186 -0.30561 2.27962 1.54384 -0.92184 -1.66453 -1.64815 2.94611 2.87174 1.45652 -1.34429 1.67289 -0.93797 -1.80609 1.34705 2.44995 -1.94495 -1.7651 0.51596 -0.19057
63 1.69832 2.06996 1.15132 1.80967 0.83524 0.80479 2.47196 1.66518 -0.7639 1.31003 1.60047 2.50267 -1.22288 -1.87231 2.64366 1.10998 -1.52946 -2.57907 0.30149 -1.35772 -0.43179 2.73572 0.60084 0.83867 0.41948
64 -2.85778 2.56475 1.8902 1.33397 -0.73121 2.32589 1.80785 2.72911 2.50882 -0.08706 -0.97249 1.15637 -0.61132 -0.44093 -0.17612 -2.90382 -2.48012 2.69126 2.18677 0.65336 -1.12288 2.12107 2.97361 -0.56371 -1.85192
65 -0.77632 2.58892 -0.72158 -0.70731 -2.17763 -1.19226 0.33805 -1.02205 1.01704 1.71707 -0.27907 0.48334 2.74131 -0.03066 -2.02337 2.34064 -0.46533 -2.88502 -1.73923 2.08966 -2.60286 -0.49708 2.09816 -2.08076 0.3691
66 -0.83354 -0.44892 -0.73941 -1.96301 -2.89022 0.98699 2.99396 -0.63308 -2.54248 2.8154 -1.42582 0.21532 -2.90399 -2.21421 1.8942 -1.95411 -0.50967 0.92554 -0.07381 2.80437 1.22433 2.88533 -0.99339 -1.13158 -1.47366
67 -2.63542 1.82878 1.44572 0.85357 0.36206 2.19366 -2.95614 -1.96993 -0.33488 0.40234 1.39218 2.91467 -2.53082 2.73106 0.28564 2.88726 -1.51647 2.22652 -0.61304 -2.97005 -2.3883 -0.27333 2.69232 -0.48393 1.04367
68 0.66121 -0.52771 -1.7168 -0.21558 -2.9249 2.65252 -2.20507 2.74325 -0.87008 -2.97728 -2.43836 1.47107 -1.45582 -0.64468 2.97675 0.80069 1.95248 -2.55692 0.28213 2.52184 -2.0443 2.74409 0.02774 0.65455 -1.10181
69 1.68295 2.06254 -2.16458 2.65959 -2.55532 -1.10688 0.31852 -2.45162 1.78863 -0.45083 -2.69719 0.78971 -1.73368 -0.94617 -2.16297 1.1524 -2.19105 -2.15494 -1.95902 0.05035 1.59757 -0.5496 1.58316 1.43801 1.61053
70 -2.59602 0.7939 0.1273 0.67055 0.73994 2.94384 2.04258 -2.63692 -1.34195 -0.20062 0.08561 -0.00817 -2.14906 0.21465 -1.27406 0.4355 -1.68638 1.00124 -2.18853 -1.61107 -2.87435 -0.9144 2.44965 -2.91942 0.86594
71 1.20376 -2.12756 0.43564 -0.36472 0.3381 0.92106 -0.2368 -0.63789 2.13132 -1.31616 -2.08551 1.13042 -1.30784 -0.95737 0.82649 -0.30667 0.04774 2.60699 -1.18187 2.84483 2.91767 -2.49803 -0.59392 0.73648 -0.59529
72 -2.82989 0.03069 -2.55716 -0.44065 0.51227 -0.46031 1.07767 2.70114 1.16981 0.217 0.75775 -0.73307 -0.42084 0.06278 0.17234 2.01877 -0.83152 0.21082 2.02853 -2.16491 -2.6435 1.71504 1.11904 -2.4875 0.53828
73 -0.51441 -1.42819 0.02184 -1.08739 -2.32318 -0.03189 -1.11307 -0.15368 2.04613 -1.70652 1.82257 -1.62018 2.63373 -1.53101 0.9205 -1.13528 2.13327 -2.49073 -2.67911 2.50125 1.23894 -1.66564 -2.94935 -1.7639 1.00544
74 1.80653 2.2032 -2.15788 -0.57818 -0.0228 0.7316 1.02391 2.30557 1.80917 1.42723 -0.71107 2.85679 0.33403 1.22177 2.05174 2.60122 -1.95691 -1.45631 -1.57079 2.85154 0.91313 0.21985 1.53369 -2.79867 1.97877
75 2.65089 -2.8635 -1.42532 2.85831 2.78011 -0.59955 1.16051 -2.6163 1.1412 1.00605 0.96689 0.85926 -0.82005 -2.69618 1.71967 -2.80035 -2.72186 0.33678 2.03261 -1.42942 -1.72998 2.11029 0.43878 0.1589 1.46071
76 0.91261 0.52554 2.3479 2.36859 2.92345 2.97018 -2.91411 -0.15367 1.60911 -2.85441 -0.93114 -1.18721 0.15961 -1.57265 2.14511 2.77908 2.98423 -2.96965 2.49551 1.86074 -1.92376 -0.05885 -2.55748 2.14037 1.90717
77 -0.25131 0.219 -2.695 -0.2233 2.84519 0.77968 1.85315 1.82832 -2.66915 0.41202 -1.38931 2.53834 -1.10428 -1.3374 1.22055 1.89892 2.26424 -1.84889 2.94657 -2.59136 -1.58105 2.10386 1.12231 0.92057 -1.43159
78 1.47107 -2.11062 2.93337 -0.70463 -1.70173 -0.26556 -1.44308 -0.54783 -0.49054 -1.23192 -2.02251 -1.26098 -1.5091 2.57311 1.6885 2.81239 2.39955 2.07997 0.21517 -1.48886 1.71044 0.26937 -2.67013 -2.84129 1.9199
79 -1.59637 2.68732 2.94456 0.74068 1.67442 2.44191 2.77773 -1.65584 -1.15958 1.99868 2.98884 2.09348 -0.18624 0.04936 -0.43521 -1.63521 -0.8029 -1.63212 -0.96802 2.80286 0.70735 1.12923 2.77867 -2.94254 0.83819
80 2.95552 -1.35382 -2.12946 2.80412 2.65701 0.81971 0.39369 1.1117 -0.60654 0.6763 0.80081 1.03453 2.86807 -0.05498 0.95345 1.23289 1.78931 1.14576 1.21969 -1.62807 2.58973 0.40596 0.97358 1.24774 0.33208
81 -1.29543 1.1205 -0.43807 0.69436 2.09131 -1.53537 2.80599 1.3213 0.0664 -2.18485 -0.3643 -1.20559 2.62218 -0.42358 -2.66207 0.52523 -2.19254 -1.78142 2.59345 -0.09187 2.2427 -0.07582 0.14495 -2.78249 0.45708
82 -0.3781 2.03975 1.87545 2.91345 -2.69896 2.61066 1.88148 2.10606 -0.12095 2.42761 -1.03559 -2.30204 -0.60879 2.16881 -0.11402 -2.42269 -1.36806 -1.20829 -1.17988 -1.1594 -0.96748 -1.32374 -2.76386 0.15422 2.01551
83 0.43858 1.37381 0.09115 -1.9641 -2.98792 2.13739 0.35207 1.17348 2.13681 -1.12114 0.35667 -1.63703 1.13408 -2.48927 1.12851 0.82762 -1.86335 2.63101 2.71576 1.78395 2.51053 -0.24011 -1.21721 2.70033 -0.0361
84 -1.4941 -2.49605 2.87892 2.70594 -2.72487 -1.78638 0.04356 0.35069 0.45021 -0.78933 -0.01272 -2.52011 -1.17847 2.60529 0.32151 1.99857 -0.4462 1.92596 -1.22252 -0.80459 -2.86314 0.59532 0.51459 -2.16403 1.64886
85 2.80325 0.18194 0.97229 2.64634 0.8021 -1.80781 2.04653 -2.29563 -2.32741 -0.0259 -1.40206 2.24328 -0.54107 1.3567 0.34959 -0.75581 2.67062 2.85724 0.2546 -0.28811 1.84662 2.82031 -2.17945 -2.56255 -2.44339
86 -2.3219 -0.67609 0.60797 2.43305 -0.27084 -0.03297 -1.50551 1.68853 -1.27712 0.00997 0.12241 -1.64008 2.18288 0.96472 -0.27311 2.73963 -2.4796 1.88584 0.80701 -1.59905 -1.1397 -0.27657 2.63957 -2.1504 -2.33911
87 2.62393 -0.83622 -0.42877 2.15427 -1.08083 -0.88394 0.33587 1.87907 2.64507 0.28614 -0.16926 -2.98664 1.3083 0.74637 -2.27447 -1.41357 1.60032 1.11617 -1.63415 -0.85491 -2.01394 -1.47507 -1.06074 0.23078 -2.11523
88 1.33637 0.98297 2.92597 -2.75907 1.63618 -0.05694 -2.8863 -1.61 -1.57396 2.73201 0.66564 -1.51168 -0.66085 -0.41249 2.00182 -1.54383 1.45069 -2.52193 -0.20818 -2.31083 1.28571 2.0762 -1.54892 -2.10797 0.7583
89 1.55232 1.79717 0.1368 -1.06343 0.22159 0.51855 0.95989 -1.06798 2.58025 0.81182 0.00403 2.34256 -1.89796 1.83759 -0.8528 -2.46878 -2.759 -1.18611 0.00675 1.54712 -0.68362 1.96117 0.3955 2.17488 1.55644
90 0.24178 2.80744 -0.9705 1.92384 -0.49112 2.75077 -0.92508 0.10967 2.00144 -2.61661 0.82435 1.18571 -2.14077 -1.83619 0.97519 2.65419 1.83672 -1.83628 1.71741 0.04194 1.91816 -2.79387 -0.62859 -2.00278 -2.48774
91 2.31753 -1.02357 -1.34329 -2.60499 -0.64295 -1.23988 0.54575 -1.57453 -1.26972 -1.16978 -0.22759 -0.94783 1.50251 -2.2686 0.96473 2.54463 -0.7057 -0.09447 2.53843 -1.97728 1.43667 -1.13037 1.45046 2.37092 -1.77393
92 -1.77432 -0.04516 -1.59582 -0.41638 -0.20741 -0.59602 1.9771 -2.04203 2.45955 -0.76563 0.1345 2.64457 2.67273 0.58511 -1.99406 -0.14404 2.5291 -0.92654 0.34595 -0.79274 -0.25755 -0.97867 0.49211 1.54215 -0.73884
93 0.58552 -0.02211 -0.45708 0.19096 1.64312 -2.79926 -0.80608 2.32048 0.93411 0.32239 -1.76427 1.37433 1.31181 -0.45554 2.88735 -0.89802 -0.50136 1.04042 0.21688 1.54687 0.92647 -2.97374 -2.84555 -2.79372 -2.41898
94 0.80242 -0.4437 1.68632 -1.09547 2.07624 -1.15486 1.29148 1.31408 0.82014 -0.42873 -0.46496 2.80874 -1.59276 0.21811 -0.80022 -0.03649 -0.70477 2.79763 2.99456 1.00652 2.62577 -1.06895 0.78676 0.63761 2.70986
95 -0.75659 0.20273 1.53214 1.91012 1.94944 1.18482 -0.01615 0.84321 -1.02564 1.24605 1.19334 1.32007 1.99133 1.17421 0.23976 -0.01214 0.13587 -0.08493 -2.26995 -0.32296 0.52108 -1.38991 0.13764 1.65849 -0.95979
96 -1.53399 -2.98369 -1.12605 -0.7837 -1.04379 2.78914 -1.73047 -1.18651 0.29937 0.99715 -1.83777 -1.13192 -0.89067 1.62717 2.80535 -1.41057 -2.68101 1.19375 0.01753 -2.50991 0.51583 2.84319 -1.98631 0.30296 -1.61287
97 2.62412 -1.85747 2.62307 0.85177 2.85368 0.65621 -2.594 -0.21631 1.6178 -0.67079 -2.58443 -2.61119 2.49063 2.32244 2.69903 -2.60215 2.12868 2.41796 0.76413 -0.35417 -1.72444 1.35378 -2.0448 2.69723 1.60133
98 -0.19801 1.94731 -0.93416 0.08588 0.01047 -0.1256 2.28654 -1.57454 -2.99342 -0.30282 -0.27667 -2.99195 2.95365 0.66063 -1.80257 -2.80255 -0.41666 0.47673 1.11897 2.27118 1.6154 2.43411 -1.67024 -0.89467 0.22892
99 -0.09987 -2.70852 -0.85544 -1.35866 -0.01777 0.37905 -0.66917 -2.62079 -2.72581 1.97442 1.92302 2.01668 2.37913 0.96068 2.4418 -2.45474 -0.71256 2.58033 -2.92396 -2.47717 -0.69552 0.52809 2.93684 -1.87145 0.08602
100 0.4151 -0.61732 2.40736 -2.53039 -0.75505 0.36145 -1.18405 0.31754 1.73563 -2.45813 0.38508 1.98395 0.9123 -2.2348 0.21719 2.44255 -2.56483 -2.62454 0.45278 0.3998 1.3568 -1.67863 -2.08852 -0.78914 0.45931
101 1.27031 2.74712 -1.89154 2.4707 1.73511 -1.90944 1.44714 -1.24406 1.06952 1.4669 0.99207 -0.59544 1.19749 0.48165 2.86617 -1.75082 -0.21089 -1.25698 1.78045 2.74991 2.91823 -1.91242 -2.19592 0.21263 0.748
102 1.54233 -0.97522 -0.66023 -0.15864 -2.44776 1.39274 -1.05546 2.34494 -0.5858 2.42183 0.75859 2.01123 -0.13222 -1.1267 2.21178 -0.36172 -1.88295 1.18643 -2.88072 1.18854 0.12913 1.12571 -0.16821 0.51981 -2.24995
103 -1.9661 -0.28334 2.09373 -2.87181 -2.24505 2.72948 1.50539 1.84206 1.17287 0.71654 -0.96598 -0.94403 -0.24134 0.03832 -0.61523 -2.55489 -0.90334 -1.87834 2.81091 -0.60782 -1.424 1.14388 0.12039 0.33417 0.79162
104 0.97326 -1.9446 2.89328 0.19533 -2.02188 2.11807 1.27842 2.89041 2.68181 2.92742 -0.72593 1.53888 -1.63634 -0.96441 -1.62524 2.66632 -2.38833 1.25889 1.67426 2.20882 2.11178 -1.93222 -0.6227 -1.88508 2.18918
105 -0.86109 0.05165 0.65517 -0.69629 -1.76818 1.61141 -2.8229 2.66643 -2.64166 -0.61731 -1.4648 0.75612 -1.55026 -2.45612 2.96103 -1.49444 1.40011 2.31559 -1.28251 0.19012 1.66834 -1.22454 -0.87636 -0.32363 0.02412
106 2.07334 0.57194 -2.74559 -2.58311 2.19956 0.65888 1.3594 1.2038 2.99389 0.24848 -1.69693 1.72697 -0.22014 -0.93851 0.02934 -2.14373 0.53205 2.25658 -1.15254 -2.53744 -0.86873 2.59818 2.67528 -2.10515 -2.71189
107 -0.95287 -0.49832 -1.783 -0.50499 -0.58312 -2.85918 -0.13823 -1.09209 0.88574 -1.31542 1.81163 -0.3548 -2.36181 0.06367 1.01204 0.898 -2.68023 1.29404 2.84919 -2.52639 -1.405 2.53964 -1.7167 2.20621 1.3285
108 0.1358 2.39745 -2.874 1.63946 -1.79727 -2.42185 0.83321 -1.61476 0.24954 2.396 0.24035 1.79648 -2.71816 -1.88044 1.37795 1.66901 1.42927 -2.06482 -2.27709 0.64836 -0.30769 1.20279 -1.11612 -1.54994 1.25085
109 -0.71196 -0.38066 -1.40094 -2.46814 1.91541 0.73196 0.26474 2.73523 0.84315 0.40577 -1.27707 2.20593 2.67544 -1.58557 -2.25514 2.51533 2.91881 2.11153 -1.74339 2.12642 0.67227 -0.1281 -2.71824 2.22936 1.2604
110 2.12255 1.96631 -2.86454 0.38694 -1.90955 1.10286 -2.82136 -0.98336 -1.36679 -1.00033 2.12552 -2.2338 2.52146 0.6743 1.48176 -1.25362 0.36982 2.64817 -1.0339 -1.40337 -0.32307 -0.06723 0.82823 -1.86112 1.43855
111 -1.12531 0.57592 -0.2201 -2.95099 2.84427 1.54468 -1.42615 1.71724 2.15121 2.83089 -2.26874 1.69033 -0.18303 0.60822 -1.12526 -2.95649 2.25161 -1.33467 -2.58179 -2.70706 0.32701 -2.31499 -1.13771 -1.34285 2.85559
112 0.73924 1.76843 -0.75632 -1.45795 -2.17337 -0.74182 -1.32993 -1.61018 1.4319 2.48894 2.74753 0.65218 2.37916 2.18874 -1.27398 1.79311 -1.16591 -0.00286 -0.41873 0.81827 -2.29444 2.45288 1.66424 -2.57065 -2.12432
113 -2.0081 0.10583 -0.96468 -2.58348 -2.73461 -2.98923 1.70609 2.23955 -2.03043 -0.39434 2.13711 -0.17716 -1.48469 0.6158 -0.35636 -1.69422 -2.3851 -0.29205 1.43071 -2.76472 2.49054 0.16342 1.34296 -0.04877 0.27154
114 1.6204 -1.44551 0.3351 2.39887 -0.42105 -2.59259 0.60704 -1.6514 -1.84515 1.96279 -2.14985 0.66771 0.71099 0.12706 -1.14556 -2.13587 0.08528 -1.34824 1.51109 -0.79209 -1.54976 2.64309 2.69066 2.40815 -0.75451
115 -2.42474 -2.24377 -0.14601 2.8238 2.82669 -1.02775 0.70201 0.10105 -2.05502 2.61517 -1.40362 -0.58611 -2.27688 0.69039 2.14885 -0.41603 -0.78292 -2.28236 2.86353 2.40001 0.40108 -0.84228 -1.60829 -1.94819 -0.84207
116 -2.26493 -2.43116 1.74196 -0.57906 -2.27734 2.90958 -1.77659 0.26907 -0.27661 -2.09723 0.25975 -2.22939 1.12364 -1.87076 2.95627 2.82108 2.58343 -1.54181 -0.04192 -2.65323 1.05252 1.59776 1.99795 -0.91084 0.01374
117 -2.29178 0.37084 -0.31186 -0.37753 -2.72499 -1.28377 2.70153 1.97162 2.07419 -2.61063 -0.15038 -2.91904 2.7629 -2.19675 -0.69713 -1.21539 0.4967 2.25522 2.3549 1.64786 2.28051 -1.97041 2.35319 0.67441 -2.89002
118 -2.75842 -1.91266 -1.24776 -2.05327 1.79111 2.67513 1.536 2.84653 0.02993 0.6141 1.53611 1.82795 -0.16749 -1.95254 1.17174 0.48859 2.9193 -2.90853 -2.71131 -0.50426 2.17407 -2.26572 -1.92657 -1.14595 1.97603
119 -1.2308 -2.62154 -0.72507 1.01339 -1.02664 -0.98558 -1.78034 0.67 0.26559 -0.83195 -1.57807 -1.85468 -1.77184 1.67982 -0.50606 -2.80205 1.86176 -1.8709 1.34719 -1.36579 2.27843 -1.1334 -2.00493 1.72268 0.45939
120 1.98272 -2.79349 -2.76004 0.65072 2.5751 -1.30517 -2.23199 1.8049 -0.09327 2.63756 0.06613 -0.56436 1.48451 2.54728 -1.77774 2.54621 0.4698 -2.96659 -2.10775 -1.58836 -2.13891 0.85888 2.50741 -2.16871 0.62265
121 -0.53507 1.81839 1.22423 1.39172 2.17416 -0.66066 -0.92376 -2.36825 -2.33779 -2.90926 -2.847 -1.27481 -2.19978 0.10341 1.34951 -0.08047 -2.68286 2.65395 -0.33127 -1.57673 -0.66065 0.5188 1.37455 -0.27405 -1.05507
122 -2.12684 -1.26901 1.42489 0.21305 -1.55483 -0.50948 1.18419 1.32024 -0.49215 -0.6134 2.76843 0.99564 2.50346 -1.82213 -0.02432 -1.58921 2.74971 2.66967 1.26427 -0.43576 1.15544 1.02481 0.94767 -1.39967 2.51783
123 2.9281 -0.90015 -1.45785 2.71134 0.23725 -0.62905 2.13711 -1.95322 -0.2183 2.10176 0.07301 2.62663 -2.47984 2.43265 0.04287 -0.18542 0.95316 1.2195 0.78019 -2.85006 -2.38306 1.10129 -2.65969 2.22167 0.48364
124 -1.79095 1.29439 -0.48999 2.64617 -2.30632 0.81274 2.04627 -0.60307 1.56768 2.39426 -2.12409 -2.82767 -2.38514 0.0291 -2.62698 -1.33969 -2.95027 1.29923 -0.65108 2.95227 0.4076 -0.3169 -2.83893 2.85335 1.78924
125 1.52349 1.45529 -2.11478 2.11932 0.64097 -2.28946 2.37048 -2.15641 2.91353 0.87085 1.19944 2.18917 -1.24596 -0.17177 2.88204 -1.97828 -2.5352 -1.61156 0.97941 2.86073 -1.77373 -1.12328 -0.55833 1.69996 -0.64607
126 -0.09493 -2.9607 -1.49374 -0.84327 1.14363 2.42144 -0.88183 2.83323 -0.18864 -1.96885 1.21574 2.62976 -2.95373 1.32998 0.95311 -1.48233 0.25469 2.71107 1.75393 2.18701 -0.92921 1.11004 -1.90465 2.61335 1.45515
127 0.62078 -0.26826 -0.91664 1.69614 1.09296 -2.14082 -2.59156 -1.59601 1.3402 2.70748 0.28783 1.35225 -0.95385 -1.21781 -1.55192 -2.33106 -0.7445 -2.97358 -0.24629 -1.01684 -1.07846 1.41365 2.89635 2.92702 -1.60661
128 -0.25686 -1.70657 1.0525 -2.01767 1.8692 -0.51701 -2.27669 -2.81839 -2.96768 1.78009 -2.6776 2.60238 2.82039 -1.45743 1.46661 -1.27634 -0.03584 0.87549 -1.21847 -1.42684 -2.16684 -1.81646 -0.30458 -2.54558 -2.51097
129 -0.81862 -0.21112 1.47284 -0.48254 2.98022 -1.61563 -2.76728 0.52335 -2.18401 2.23287 0.67077 -2.11184 1.10079 2.03307 -1.70698 -2.22579 -0.83624 1.74615 -1.29895 -2.55222 0.53973 2.08713 -1.25355 1.95746 -2.0375
130 -1.49751 0.09063 -2.72522 0.37919 2.27611 -2.37734 -1.52872 1.10547 -0.89678 0.57716 -1.65273 -2.48439 0.87811 2.05794 0.64483 1.51936 -0.74907 -0.92938 1.17636 0.81949 -2.52546 0.75523 -1.31072 1.34045 -1.22154
131 -1.23956 1.59284 1.30185 2.20013 -0.3102 -1.17118 -1.83575 0.06703 2.23943 -2.60373 1.55993 1.43905 -2.16874 0.84891 -2.99605 -0.42156 -2.51341 -0.74964 2.18854 0.76104 -2.23157 2.6378 -0.60848 1.62652 -1.54183
132 2.64753 1.85938 0.9979 2.24049 0.68905 2.19599 2.62228 -2.11147 2.00087 -1.1044 1.21707 2.65403 -0.37624 -0.55201 -0.84246 -1.58744 0.83856 -1.45496 0.39713 -1.25247 -0.24077 1.96068 -1.19789 0.0478 1.14065
133 -0.67115 2.75183 -1.44019 1.38 0.91324 2.47994 -0.11836 2.44118 0.09985 -1.38242 2.82659 2.43723 1.40602 -1.73457 2.02628 2.48108 -0.87794 -1.98791 0.0475 -2.79682 -1.27031 1.65465 -0.1609 0.63204 -2.21054
134 2.57978 0.82432 -2.92063 0.91472 1.89009 -2.13242 2.89273 2.66109 -2.56637 2.5287 -1.77162 -2.37504 -1.25685 1.10616 -0.85228 1.3806 0.83354 0.46344 2.36958 2.78486 2.01207 2.58989 2.2562 -0.68038 -0.22066
135 1.56931 -1.11526 2.56121 2.95144 -0.30955 1.68754 -1.91932 -2.18984 -1.63627 -0.72517 0.98435 -2.38779 0.52521 -1.33147 -2.76439 -0.13144 -1.61716 2.12381 1.28234 1.6779 -1.74983 -0.47902 2.49974 -2.865 -1.78393
136 2.45768 1.69 -2.79757 0.63845 1.26215 2.35855 -1.89834 -1.7441 -1.70712 -2.41368 0.03327 1.93185 -1.0757 -1.08073 0.11094 -1.59588 -0.823 1.65722 -0.2586 1.12797 1.00603 0.22338 -2.22861 -0.64415 -0.96927
137 -1.54069 -1.32048 2.67927 -2.22781 -1.49823 -0.11503 -2.28244 1.60527 0.97109 2.08394 -2.05889 -0.9631 2.53743 -2.87448 -1.60574 1.75402 -0.05556 -1.82133 -0.43094 0.81227 -1.27653 2.54018 -2.05888 2.60418 1.6709
138 -1.93482 -0.52894 -2.75487 -0.31181 1.61228 -0.58637 -2.18162 -1.80226 2.61076 -1.13123 -0.76089 2.68033 1.33739 -2.14299 0.2212 0.43738 2.25279 -2.90601 0.96997 -0.07615 0.26773 -1.62396 -2.81817 0.05461 -1.79147
139 0.16748 -1.59589 -0.00942 2.31406 1.5766 1.79338 -0.19027 2.18514 -0.78024 2.13027 2.35312 -0.01106 -0.37459 -0.83864 2.72334 0.6266 1.70881 2.19838 -1.3666 2.04132 2.12652 -2.61517 2.91834 -2.57233 -1.19726
140 -0.3695 -1.2376 -1.62184 0.4 -0.06759 -1.0482 -1.3139 1.0693 1.36976 0.30697 2.0211 -0.27194 0.29471 1.39739 2.05936 0.44683 -1.03247 -1.76561 -2.40646 -2.43916 -1.7276 -1.7219 2.6217 2.32912 -2.12943
141 -2.86133 1.42781 2.15996 -0.65113 2.83948 1.67333 0.20182 1.3027 -1.04299 0.89914 2.56321 2.26364 -2.70954 -0.50755 -1.82079 2.55029 1.70096 0.76988 0.6896 -2.95497 -0.95238 0.03683 -1.62196 -2.54289 1.73532
142 -0.78481 -1.47084 2.25529 -2.08776 -0.51226 -2.10751 -1.7673 -1.73462 1.77246 -1.34531 0.98488 -2.31147 -2.29087 1.03806 1.82986 2.69828 -2.43924 0.59662 0.22482 -0.45502 -2.77722 1.87753 -0.53863 2.39878 -2.45075
143 0.99292 0.52437 2.72485 2.52854 1.84541 -2.87737 -1.5738 2.55625 -2.81944 2.034 1.05551 -2.1669 -0.4765 -2.49342 0.33803 -1.60044 -1.0694 1.70376 -1.98603 1.20244 -1.15142 0.9939 0.0992 1.3249 0.61116
144 1.42266 2.56211 1.60253 1.11216 2.1788 -2.33454 -0.17873 2.19757 0.37652 -1.4936 -2.26186 -2.95821 1.69658 1.36755 2.10028 -0.90031 1.92904 1.27304 -0.23727 1.65062 -2.46885 -0.05237 2.58404 -2.25768 0.60381
145 0.94607 -0.19891 -1.23901 0.71727 1.88767 2.9551 -2.39965 2.81146 -0.63034 -2.03934 -2.87481 1.61493 2.49066 1.87761 -2.14553 0.12674 0.966 0.92036 -2.21176 1.28965 -1.11314 -2.18951 -1.38289 -1.35558 -2.59755
146 -2.69435 -2.55782 2.44943 -2.00924 1.19217 -2.34076 -2.12773 -2.43262 0.31611 -1.51098 -2.72201 0.83772 -1.35515 -1.84954 -1.93863 -2.076 0.24937 -1.39553 -2.9522 -1.60027 -0.87574 1.16851 -0.81644 -1.40589 1.6256
147 2.72967 -0.08207 -2.21541 -2.58931 -2.17178 0.41051 2.46423 -1.2933 -2.25237 2.91787 -2.43902 1.67472 0.15309 2.82088 0.47489 0.17694 -0.78693 -2.47561 2.82926 2.70393 -2.0597 -1.11942 -2.20809 -2.4711 -2.63184
148 2.61072 -1.196 -2.58038 1.15269 -2.44311 -1.80661 -0.76624 1.00552 1.28056 1.7844 -0.62372 2.55734 -2.12264 -1.13516 2.90921 2.39831 -1.38515 -0.09516 0.47953 2.93213 -2.08354 0.37654 1.3938 -1.92056 1.95248
149 1.99939 -0.16544 1.69927 1.08798 -0.88705 -1.16713 0.18996 -2.96277 2.76355 2.00414 0.82378 2.43544 -1.80849 0.20673 1.02432 1.8024 0.97423 -1.7601 -2.80631 -1.13233 -1.12531 0.01687 -2.34134 -1.76861 0.86022
150 -2.10406 2.79633 1.83879 -2.83064 2.26313 -0.07957 0.43439 2.68221 2.45628 -1.80197 -1.57213 1.87118 -2.50602 -1.42959 -2.42845 0.50839 -2.11769 0.30622 0.20884 -1.65141 0.63858 -2.0877 2.71913 -1.19923 -0.16554
151 -2.3741 2.5321 2.1467 2.1493 -0.63059 -1.31187 -0.66415 -0.51292 -2.87331 -0.62644 0.26482 0.15358 1.4141 0.93405 0.06929 -2.36816 -1.20436 -0.82717 0.14083 -2.15177 0.13691 0.10433 1.1285 -2.65676 -2.3034
152 2.75919 -1.58858 -0.12006 2.32334 1.75458 -2.77578 -1.94482 -1.65582 -2.56854 2.09547 1.12262 -0.82699 -0.76292 1.92612 2.79524 0.06321 0.06803 2.76894 -2.04985 -2.93025 0.43718 0.09624 -0.15144 -1.9018 -0.78252
153 2.23495 0.00498 -1.38521 -0.01137 -1.23802 -2.09071 -2.07658 -0.54087 -0.89756 -1.56161 -1.67614 1.30504 2.9572 2.09354 -2.44581 0.04907 1.87071 2.59276 2.8432 2.51594 -2.84827 -2.11746 -1.25159 1.08122 2.54475
154 -2.32347 -0.72265 2.7504 1.27065 -1.67802 -0.98023 -0.49993 -1.61174 -1.48498 -0.25769 -2.36744 2.92824 -0.4372 -1.97386 2.46139 -0.09058 -0.65718 -0.3784 -2.10897 -1.93143 -1.34651 2.79631 -0.33182 -0.89024 2.77132
155 -2.60425 0.30426 2.56849 1.69703 1.11216 2.55649 -2.33071 1.13846 -2.31535 -1.01221 -1.92426 0.71502 0.67565 -1.01495 2.29954 -0.011 0.83295 1.29061 0.39737 1.16718 -1.4723 -2.23676 2.31934 1.24449 0.39243
156 2.34303 2.36948 1.63273 0.94575 -0.65506 -0.14066 -0.60719 0.8592 0.61288 1.02641 -1.51869 -0.10434 -1.06622 -2.27464 -2.66108 -0.98506 2.44486 1.02904 1.15818 -1.57443 0.98748 0.69449 0.50386 -1.17582 -0.37189
157 0.47793 2.49292 0.91271 1.38732 -1.43634 2.81598 0.30917 -2.71373 1.35252 -0.6321 1.92772 -0.49535 -0.52541 -2.65355 1.03771 -2.98787 -2.75869 -1.23521 -0.35843 -1.88217 0.85126 -1.56814 -0.23325 -2.43268 1.8551
158 -2.86263 -1.14842 -1.19178 0.48922 2.91404 1.94261 -0.58951 -0.63745 1.1677 -1.61275 -2.3839 -1.2468 0.81542 -1.65983 0.37048 -1.22724 1.39148 -0.96452 2.36485 2.59165 0.35437 -2.50822 -2.28788 -2.90236 -2.83151
159 -0.51039 0.25099 1.2674 0.82182 0.34871 -2.10588 -0.72525 1.55228 -0.76917 -0.19123 0.0906 -1.92204 -0.26507 -1.74348 -1.87485 -2.9267 1.08658 2.7785 -1.95509 -0.31412 -2.20779 -1.57929 2.06265 1.55295 -2.72526
160 -2.96311 1.59763 -0.15166 2.59086 -0.5184 1.95113 1.65019 1.89966 -1.36919 1.00463 -0.07428 -2.17934 1.95367 0.46227 -2.2239 2.05877 2.86138 -1.75996 -2.28113 -1.15126 2.07271 2.59092 2.7254 2.22005 0.28329
161 -0.8203 -2.78329 0.05582 -1.80871 -1.53328 1.06693 -0.14819 -1.40024 1.18874 -1.5153 -2.8824 1.92185 0.38003 -1.38911 0.67312 1.57638 2.66235 -1.12376 2.86917 -2.71384 -0.63834 0.66368 1.26676 1.64404 -0.90509
162 1.39211 2.17522 1.19066 2.719 -2.85526 1.60165 1.25458 -2.50395 0.61842 -0.36936 -0.61818 -2.11754 0.30774 -0.71725 1.18125 -1.5022 -0.49165 1.70192 -2.86677 -1.42721 1.88164 2.26107 0.84243 -0.74196 1.56991
163 -0.43245 1.1206 2.53691 -1.63155 -1.4757 0.92611 1.18789 2.34084 0.49764 -2.85736 0.62444 2.24797 2.36218 2.43518 -2.13343 2.73887 2.76883 -2.99288 2.81858 0.13173 -0.48363 -0.68543 -0.49512 0.56762 -2.63679
164 -2.04019 -0.39268 1.65266 -0.04689 -0.78381 2.67467 2.07115 -2.73376 -2.17576 1.22233 1.009 2.20788 -0.44603 -1.39824 -1.93125 1.11165 2.42226 0.31464 -2.42029 1.09064 0.1448 0.85054 -1.32084 1.25731 0.57195
165 -0.8535 0.31736 2.64913 0.44738 -2.66377 2.69769 2.55023 -2.18493 1.9541 1.54891 -1.02252 -1.38562 -0.69061 2.4682 2.79016 0.27675 -0.96615 2.17985 -2.89246 0.72904 0.41597 -2.51696 -2.7984 -2.31698 -2.12586
166 -2.23168 1.84122 -2.37762 1.62344 -2.70878 1.29781 -0.74183 2.52142 -2.29682 -2.44067 -0.29256 -0.39704 -1.01873 -2.46162 1.62052 0.07142 -0.47691 2.61261 0.25791 1.64271 2.73149 2.89601 -1.44809 2.10899 -0.13877
167 -2.59716 -2.14739 1.02499 1.1343 1.98705 1.34163 2.47747 0.51362 0.85675 -1.55874 2.75922 -0.94767 0.33151 0.7223 -2.14704 2.9063 -1.42512 -2.5826 1.14582 0.13639 1.9947 2.20152 2.01611 1.67133 -1.84886
168 -1.13556 -0.35384 2.25627 1.20783 -2.86175 1.26361 -2.88398 -2.39988 -1.98819 -2.03412 2.06481 1.86455 2.43661 -0.04026 0.39521 0.39997 1.17408 2.6118 1.42311 -0.99161 1.4609 2.41425 0.46919 -1.56986 1.50413
169 1.10894 -1.77937 -1.72267 -0.54823 1.64474 -2.15051 -0.19663 1.84369 -1.01519 -1.37301 0.72156 -2.34575 -2.70414 -2.78958 0.36711 0.81176 1.98376 0.91925 0.08556 1.48548 0.05372 -1.9792 -0.30841 1.57121 0.97056
170 2.51634 -0.6269 -2.15053 0.08687 -0.08907 -1.2368 1.31202 -1.78947 2.73569 1.9688 -1.45523 -1.99327 1.99758 -0.81962 2.30405 -1.26626 -1.24142 -0.11717 -2.62977 1.88347 -0.87563 0.70204 0.19878 1.52349 0.63433
171 -2.31624 1.33195 1.95433 1.77361 -0.36704 -2.78975 -2.14421 1.09223 0.30033 2.20348 0.98785 0.09411 -0.47205 -1.9878 -1.20604 -1.51295 1.59986 -1.43167 0.90096 -1.99454 0.81473 1.28848 1.77179 1.20242 -1.22264
172 -2.93187 -1.99186 -2.48028 -0.81391 -1.33687 -2.30856 1.03883 2.75675 -1.67639 -2.19394 -0.78747 1.62681 -2.64128 -1.31849 -1.79495 2.69887 -1.70136 0.28893 1.95407 -2.6065 -2.99926 -2.82564 0.78843 0.92186 -1.00248
173 1.99651 -0.95824 2.97814 2.55873 -1.72173 0.26512 -0.17673 -2.71501 0.18072 1.53098 2.28114 0.58883 -0.0352 -0.68344 1.82996 2.62471 0.89759 -2.44007 0.68185 -0.3431 -1.44559 2.32678 2.84399 -1.46653 0.31125
174 -1.23434 1.08002 2.70502 -0.97618 -0.08903 -1.8115 0.72993 0.83734 -1.89635 0.45332 -2.02193 -0.7044 0.12113 -0.18511 -2.11291 -1.31409 -2.80123 -2.15737 0.20978 1.48863 1.36061 1.25071 0.2783 -1.1404 2.63283
175 0.4766 2.23203 -2.41861 1.90511 -0.70928 1.73785 0.03651 0.69415 0.24244 -2.5156 2.71268 -2.08044 2.50731 2.71514 -0.36468 1.63129 0.34462 2.2246 -2.06842 0.31721 -2.58894 -0.92144 -0.94062 1.04178 0.78633
176 2.18497 -1.93378 -2.40566 -2.65277 0.03731 -2.12768 2.03094 -1.96178 -1.47631 -2.17329 1.51134 1.62273 0.3646 -2.63371 2.9333 2.52474 -1.35528 2.46278 0.00505 -2.86396 1.72704 -1.16577 -0.37668 -1.50939 -2.62229
177 0.85701 0.88511 -1.90328 1.04519 -0.23821 -1.62878 1.64394 2.43467 -2.7846 1.53616 -2.01772 0.19026 -0.26083 0.73375 1.05273 -2.18424 -1.94259 2.05267 2.04957 1.80318 1.75862 -2.00224 -1.19905 1.3611 -1.46352
178 0.32817 1.82535 -1.96648 0.05979 1.79773 2.17731 -2.38249 -2.32734 0.02359 -1.69908 -0.88069 0.54817 -0.78792 -0.92159 -1.8124 -0.78219 -1.98155 -2.62742 2.40314 1.08362 0.60053 -0.73407 0.52931 -0.16922 0.83035
179 -1.27688 2.52463 -1.78558 0.12151 -0.46411 0.81202 1.55387 0.03169 -0.90773 -0.03965 0.46698 2.021 -1.9736 2.44161 -2.65205 1.1925 2.25562 0.17434 -0.02595 0.45504 -1.11511 -0.79338 2.09623 -1.67425 0.83509
180 -1.13374 0.23624 1.44422 2.22972 -1.00675 1.96025 -2.15463 2.9964 2.40102 -1.76341 -2.76672 -0.79942 1.34746 -2.35133 -0.90439 0.18944 1.65408 2.36877 0.35943 -1.56121 0.90606 -1.11607 2.45996 -0.23958 -2.20913
181 -1.17529 -1.86407 -2.52321 0.39961 -0.54105 2.76699 -0.00283 -1.43151 -2.33429 0.73389 -0.68789 -0.16711 -2.25553 -2.92313 1.23989 -0.04195 -2.0586 -2.87448 -2.58753 2.14099 -1.46822 -1.20712 2.74778 -0.45693 -0.60068
182 0.68186 2.99297 -0.46925 1.28064 -1.47581 -0.6541 -1.25043 0.40203 -2.32351 0.8205 -1.83665 -2.01785 1.96112 -2.173 0.46041 -0.95861 -0.63041 0.54464 -0.06436 1.08787 2.65888 0.41234 2.99811 1.79496 -0.66177
183 -2.38284 -0.33438 1.25274 -0.07972 -1.31205 0.0421 -1.68662 1.97548 -2.30531 1.37182 -0.67232 -2.19304 1.26613 -2.7919 -2.59341 -1.25486 1.28077 -2.15446 -2.26217 -0.11037 -0.82098 0.3149 2.09291 -1.9282 -2.17838
184 -2.68293 -2.54863 -0.31355 2.95045 -1.83554 1.38234 2.86077 0.15858 1.94291 -1.17393 -2.85781 -0.96516 -0.72813 0.5778 -0.44437 1.47944 2.09171 0.56494 2.26059 -2.99283 2.33446 -1.00308 0.23648 -2.80567 2.08441
185 1.28238 -2.12838 -1.00297 -0.52542 1.71056 1.39669 2.85204 0.99762 0.37994 2.68741 -2.96067 2.39137 -0.80011 -1.8775 0.10328 0.88593 -1.72623 1.46454 -2.02442 -2.5473 0.11214 -0.44345 0.18628 -1.45613 1.52212
186 -0.3272 1.7021 -0.27528 -2.84567 0.25681 1.03101 0.55989 1.58523 -2.38571 1.20432 2.58675 -0.02165 -0.48616 -1.81546 2.28588 0.52885 0.59713 -2.18508 -1.40455 -1.78241 1.39933 1.11038 2.18044 -1.9535 -1.9261
187 1.57589 -0.97299 -0.23259 0.78751 2.18399 -2.82333 -0.0893 0.1358 0.16375 0.0522 2.88151 -0.80848 1.17539 0.45374 -2.38557 0.01156 2.27062 2.22204 -2.60599 -0.65541 0.02512 0.97925 -0.75416 2.24511 0.30078
188 1.24616 2.1044 1.42984 -0.39476 -2.92941 -1.0784 -2.97809 0.39848 -2.41253 2.50506 -0.08283 -0.16492 1.56594 -0.51066 1.62659 -2.55208 -1.81102 1.32366 -2.78134 0.4905 -2.59208 2.57167 1.93974 -0.60283 -1.35754
189 2.29414 -2.68928 -2.43378 -1.0696 2.15503 -1.59524 0.31163 -0.81304 0.88564 -2.72853 0.7769 1.16048 0.63053 1.38477 1.55179 -2.83136 -2.91279 1.31246 -2.09282 1.31079 1.26394 -1.58618 -1.05117 -2.12882 1.60293
190 1.31352 -0.90195 2.16457 -0.40213 -0.52152 -0.75224 2.03003 -0.61738 -1.85485 0.51037 -0.56471 -1.30639 2.04961 2.90812 1.44211 -2.91411 0.71081 -1.23986 0.7781 1.08145 2.54146 2.12383 -0.00989 -2.34245 -2.58437
191 1.28275 -0.71014 -1.44615 -2.56763 -0.95305 -2.7153 -0.60534 0.084 -0.1215 0.61857 1.07751 -2.18444 0.81767 1.33139 -2.36065 0.17552 0.9433 -1.81739 -2.79246 -2.76697 -0.65358 2.81585 1.42963 0.45871 -1.80633
192 -2.8687 0.8348 -1.178 0.73193 1.0862 0.3969 0.10265 -2.57261 -2.63159 -1.72735 2.83969 -2.9808 -2.13777 -2.77913 -2.10509 0.1335 -0.54223 0.92393 0.94795 -0.90199 2.96067 -0.68569 -2.51429 2.23338 -1.03303
193 1.36934 0.38256 0.91333 1.84698 0.10469 -1.45073 2.51745 -0.62828 0.7908 -2.167 -2.70023 0.3356 -0.15102 -1.44535 -1.44806 -1.53567 -0.12666 -1.49028 -1.82579 -1.57198 -1.14481 -1.67533 -2.14811 1.87877 -1.18898
194 -0.23983 -0.08867 -0.41505 -0.14483 -0.4965 2.57467 2.91157 -0.77722 -2.74202 -1.23745 -2.57527 0.42842 -2.57414 -2.1279 -2.38516 -2.29494 0.79833 2.0296 1.26481 2.59097 -0.65099 2.08918 1.99687 -2.3434 0.40792
195 2.80985 -2.01265 -1.36552 -2.46008 0.42338 -1.45778 1.92639 -2.27671 -2.45437 1.26459 -2.90331 -0.48772 -0.211 -1.51765 0.03759 -1.85218 2.42322 1.38879 0.14679 0.28041 0.31443 -0.37052 -0.95415 -2.83423 -1.12371
196 0.44426 -0.5434 -0.15839 -0.70608 -2.98795 -2.44601 2.67396 -0.22808 -0.85136 0.32807 -2.60135 2.2923 -2.81767 -2.5544 2.78657 0.3833 -2.89203 -1.15189 0.71608 2.91686 0.08554 -1.37816 1.71158 -1.57207 2.58189
197 0.22041 -0.26264 0.04166 -2.15641 1.3142 2.04809 -2.45524 2.80382 -1.08596 -0.45448 2.17033 2.6085 -0.52621 0.48531 -1.17552 1.0479 -0.31634 2.85938 0.81124 -1.3638 0.08142 -0.30295 1.3622 -2.69584 -1.49945
198 -2.71561 -2.8562 -2.25238 -2.76244 -2.06819 -2.56751 -1.90792 -0.76724 -0.24223 -2.62289 0.66896 -1.42485 -2.27077 2.31989 2.48601 -0.41132 0.91375 -1.35855 -0.11062 -2.2946 2.5573 2.01961 1.18098 1.90789 -1.12669
199 -1.92739 -2.58362 -2.48337 2.22035 0.64023 0.06609 2.97735 -0.31106 1.70391 -1.91848 -0.92202 -1.27927 1.23336 -0.78155 0.43643 0.3553 -2.18947 2.21319 -1.11117 1.09678 0.39215 -0.90468 -1.22542 -2.85335 -2.96166
200 1.63164 0.9167 2.55143 2.3521 -0.13298 -2.05603 -2.95923 1.45362 1.8496 1.86301 -2.59957 -0.60611 -1.71202 0.6941 1.86241 1.72377 2.55655 2.546 -2.38013 0.42946 0.46093 0.41482 -0.35622 -1.39491 -2.19774
201 -2.98644 0.19026 -0.74542 -0.07049 -0.26887 1.58083 0.74096 -2.46429 0.21644 -1.00326 1.3176 -2.78459 -2.28058 -1.09438 2.18429 -0.16747 0.05095 2.09808 0.57349 1.77154 -1.65734 0.26035 -0.12918 2.72273 2.4956
202 2.29533 -2.24176 -2.63164 0.72895 2.07733 -2.67501 2.15688 0.91325 1.07172 0.78763 0.54318 0.49287 -2.70552 0.77533 1.25528 -2.10069 -1.69426 -0.94266 -0.87326 -0.36111 -2.36132 2.40921 -0.40901 1.95276 -2.20426
203 0.75156 -1.44207 1.67718 1.97843 1.39547 -1.80146 0.33379 1.806 1.55871 -0.43662 0.20509 1.67634 0.98046 1.21353 -1.29126 1.88327 0.37264 0.98833 0.60567 -1.13698 -1.57901 -1.0478 -0.67639 2.19438 1.84722
204 1.57707 -1.65867 -2.80077 -2.5504 -0.33205 0.0939 1.36905 -1.54836 -2.37009 1.0574 -0.19062 -0.26617 -2.36799 0.43014 -1.83298 1.91323 0.12976 1.96813 -0.29775 0.59299 -0.94908 0.069 -2.83186 -0.58144 1.12119
205 -1.26397 -1.24599 2.8275 -0.53361 0.13943 -0.1087 -2.96531 2.74666 -2.49617 2.53644 0.13827 -0.66714 -2.82367 -1.03412 2.20573 1.58941 -1.90228 2.10615 1.86791 -2.02459 2.51584 0.00567 1.38694 -0.77291 1.9424
206 -0.6447 -2.06859 2.0248 2.4936 2.49629 1.61986 1.45869 -0.80324 0.96386 -0.4415 -1.06322 -1.41699 -1.70217 1.51215 -0.37356 0.49731 -1.29595 -0.85638 -1.04497 0.29912 -2.88205 -2.52271 1.61846 -2.31935 -0.38887
207 1.52921 1.71722 1.10497 1.56726 -0.6777 0.29008 -2.33928 1.00418 1.68716 0.66073 -0.03339 -0.36802 -2.5766 -2.69727 -2.71156 -0.24101 2.22485 0.14504 0.89175 0.85294 0.07626 -1.66444 -1.11662 -2.67821 1.60996
208 -0.71031 -0.87947 -2.82505 -2.69077 0.91083 0.38123 -2.55679 -1.30099 -0.92618 1.24584 0.89279 0.93069 0.23291 -2.91261 -1.17037 -0.62921 2.60204 0.02701 1.37201 1.70256 2.77598 -2.8492 -2.20769 -0.53803 0.7892
209 -0.09072 0.47928 0.75348 -1.19542 0.7998 -1.63041 2.4982 1.41641 -2.80046 -2.85183 -2.37059 -2.61489 2.00098 0.49998 0.32915 -2.92941 -1.77552 1.68388 -1.79078 -1.94483 0.6695 -2.07251 2.92381 -2.53914 0.72095
210 1.09616 -2.20834 -0.52669 1.5029 -0.74904 -2.15049 -0.97489 -1.7306 1.2953 2.89326 1.66408 0.32502 -2.49227 0.90407 -1.32481 -2.82175 1.78262 -0.68724 -2.81516 0.14981 -1.51219 2.97604 -1.1331 0.06603 -2.10032
211 2.55882 -1.23993 1.92484 2.17378 0.17604 2.77752 2.81386 0.16676 2.14048 -2.95299 -1.50155 0.17601 -2.96857 2.05501 2.1666 -1.40029 0.92979 0.62681 -1.92014 2.12467 0.57329 -1.78317 2.62826 -2.2735 2.09777
212 -1.89956 2.55945 -1.44792 -0.69257 1.28258 0.48373 0.10731 -0.46369 -1.05586 0.63671 -1.68312 1.63184 -0.93632 -0.40504 -1.25068 2.21045 1.26806 -2.58388 2.91872 -1.77807 0.33395 1.9555 0.24716 -2.09898 -0.2719
213 1.02446 1.62509 1.07974 -0.49578 -2.18694 2.50396 1.6865 0.45276 -1.08877 0.57344 0.75764 1.0647 1.60814 -1.66485 -0.95626 1.8683 2.0546 -1.0861 1.13155 1.23348 -1.8072 1.45571 -2.90799 -0.27174 -1.27156
214 2.53245 -1.06527 -1.83264 -2.75619 -1.42453 -0.75714 1.58535 -0.59647 -1.56868 2.68725 1.81726 1.9121 2.70424 -2.2973 -0.2859 -0.74471 -0.56356 2.25314 -0.30027 -2.96236 -1.96363 1.64831 -0.78575 0.16506 -1.6607
215 2.43882 1.27065 0.42205 1.45318 1.0448 2.96058 1.15249 2.84808 0.03483 0.91765 0.06227 0.90365 -2.61374 -2.64666 -2.53421 0.23418 0.75289 1.06317 -1.85776 -0.32216 0.76945 -2.22216 -0.08295 0.07141 0.57849
216 2.02114 2.30826 0.20891 1.35445 -2.75786 -0.20926 -0.42307 -1.33996 1.07 0.5095 2.56603 1.02935 -1.73014 0.48107 1.13232 -0.77345 -2.26395 -0.10472 -2.00185 1.06916 -2.43105 2.60385 2.50495 2.12557 -2.94632
217 -2.6038 1.63737 0.72807 -2.49199 2.66861 2.71051 2.43816 -0.94137 -2.17678 -0.49561 -2.62716 -0.13796 0.6818 2.70634 -2.65441 -1.97789 2.28509 -2.78383 -2.74349 0.42934 -2.57822 -1.14203 -0.74552 0.85449 0.97127
218 2.03399 -0.78358 2.36364 1.99993 -1.57254 0.55323 1.19351 -0.48743 -1.60881 -1.02581 -0.0123 2.6224 1.87813 -1.98914 1.28485 0.84877 1.11257 -2.57894 -0.73546 -1.58844 -1.15149 -1.18048 1.99844 0.60255 -0.61256
219 -0.78375 -2.23697 -0.97467 -0.23521 0.78074 2.92685 -0.50709 -1.40441 0.70565 0.9897 -1.28077 2.99176 2.20835 0.87951 0.70654 2.81895 -2.33848 2.68993 0.19857 1.41069 1.10091 1.30135 -2.27152 1.18912 -0.30634
220 -1.60201 1.64715 -1.42419 2.01014 -1.08865 0.17679 2.00509 -0.04303 1.41887 0.53342 -2.96871 1.24107 -1.88361 2.13929 0.98904 -0.48788 1.63317 -0.80082 -1.72713 -0.94733 0.41023 1.42096 0.16205 0.30097 -2.91828
221 2.66518 -1.60386 -0.9458 -1.15443 -2.05434 -2.27145 -1.57776 -1.11896 1.62565 2.14013 -1.4662 -0.23747 -0.41991 2.80421 -1.2742 -2.50965 -1.2707 0.18312 2.35438 -2.5422 -2.28143 0.39177 1.20945 1.73666 2.68677
222 -0.28244 -1.40168 -0.91895 -1.85858 -2.61768 -0.34079 1.65106 -0.7725 -2.27009 -1.0429 -1.49455 -2.36748 -0.93765 -0.08012 2.03921 0.97994 -1.61264 0.82724 0.54814 -1.95016 -0.40602 0.06592 -0.97764 0.60907 -0.82634
223 -0.10938 0.48367 -2.29475 -1.85673 0.54667 -2.95995 -1.10646 -1.27539 0.79107 -0.02654 -2.8101 1.22348 0.59442 -0.41363 -0.37759 -2.22338 2.32868 -2.22199 -2.28256 0.3589 1.26309 -2.87481 2.73092 0.92382 2.66984
224 2.37365 0.18837 -2.88681 0.82253 2.96231 0.18242 1.52153 -2.19161 1.23438 2.85166 -1.37293 1.78576 -2.63499 2.24862 0.02966 0.22835 -0.63005 -0.16576 1.84102 1.48819 2.62277 -2.21408 -2.13659 -1.1145 -2.06856
225 2.83044 1.9318 -2.89325 -1.62892 2.61747 0.97789 -2.94043 0.8671 -2.73636 2.89124 -0.21073 2.35429 1.05352 0.16373 0.68111 2.98879 1.6293 2.4035 -1.09612 -0.82305 -0.99614 -2.79307 0.29832 -1.28353 1.30567
226 -2.61645 1.92059 -1.45978 -0.54962 -1.98682 1.68532 2.63374 2.43521 -1.46735 -0.17771 -0.22037 0.91478 0.73885 -1.08484 0.98013 -2.32862 -1.3298 0.10936 0.84161 1.9219 -2.29373 0.44553 -0.52781 2.99071 0.46923
227 -1.02628 0.63798 -1.66229 -1.76586 -1.27995 0.53101 0.00426 -1.79589 -2.59522 2.62524 1.19584 0.14208 1.36919 2.6014 2.68354 -2.54727 -0.60423 -1.65346 2.91065 -2.02171 -0.84775 -0.88001 2.19167 1.72803 2.5367
228 -2.9145 1.19448 0.48153 1.38285 1.65851 2.38632 1.3701 -2.71908 -2.25704 0.81145 -2.99739 1.19686 1.97565 0.55583 -2.26772 2.43891 -2.42762 -2.3131 -1.29402 1.01362 1.97403 0.72836 2.13853 -1.96727 0.89875
229 -1.73533 1.12064 -1.56245 2.29511 2.59273 0.66033 -2.64985 -1.62216 -2.22707 -0.17967 2.38938 2.57502 0.19596 -2.99464 -1.45116 0.41487 0.10202 -1.23564 -0.24811 -0.10335 1.48154 -0.73824 0.40387 -1.17753 -2.21751
230 0.1017 2.94635 0.23533 -1.18934 -2.01064 1.62499 -2.53949 2.78853 2.83652 0.40641 0.42149 1.4804 -0.14795 -0.37787 2.35793 -2.71944 1.64011 0.49137 -0.78565 -2.53727 0.31249 2.00136 2.4196 1.08348 1.19345
231 1.52103 -2.16282 1.43133 1.64846 -2.39745 -0.97599 -2.49985 -2.79839 0.40345 -0.88346 -2.93167 2.24684 -1.03577 2.12321 1.04057 2.95565 -1.2081 1.01775 0.45472 -1.77168 2.43492 2.65605 -0.80088 -0.74592 2.23806
232 1.08519 2.55424 0.55297 0.94629 -0.09376 -0.45655 0.59242 1.03513 0.62772 1.32184 -2.66145 0.87923 2.67502 -1.99939 1.60002 0.5283 1.01288 -0.49078 0.59237 -1.20549 -0.85626 0.78316 0.94802 -0.63573 2.23512
233 -1.0924 -1.51883 -2.50493 -2.69765 2.46466 1.48351 -0.61372 -2.78784 0.23855 1.60628 -2.61312 1.2619 -2.43932 -0.95828 -1.37792 -2.93168 1.5025 -1.84258 -2.1614 -0.38625 2.17326 2.937 -1.03125 -0.63354 -0.19407
234 -0.40272 -2.09308 1.08625 -2.38468 -1.98894 1.19704 -2.27894 0.26822 2.68433 2.96884 1.20171 -1.19928 2.79317 -2.38357 -2.01554 -2.40513 -1.52146 0.55495 -1.67322 0.86636 1.22279 2.83978 -0.30825 2.5816 2.95646
235 2.47008 0.03191 -1.86001 -2.7806 2.27266 -1.65821 0.87471 1.79394 1.52596 -2.40288 -0.83828 0.46616 -0.50093 -1.32022 -2.34957 2.81094 0.58195 2.93329 -0.76705 2.491 2.03031 -0.67559 2.51886 -1.54591 0.55509
236 1.46765 -1.94641 -1.70354 2.19757 2.93011 -1.14315 2.9657 -2.21182 -2.86274 1.04836 -0.92133 0.89116 -1.92527 2.049 -2.70421 -1.09143 0.46585 0.57243 -1.3341 -2.11525 -2.20088 0.47193 -0.60286 2.92733 1.96889
237 -1.03011 -0.63028 1.15607 -1.60759 -1.75441 0.43794 0.65559 0.96234 -2.33385 0.42871 0.43076 2.97542 1.78484 0.98747 -1.87343 -0.4242 -1.57251 -0.41131 2.66012 2.72458 2.72147 -1.42114 2.91988 -1.7293 -0.07083
238 0.74483 -0.30327 -0.27814 1.41639 -2.10002 -1.16667 -2.54157 -2.65942 -0.16575 2.763 0.22884 -2.56176 1.63751 2.28581 1.68286 -0.99667 -2.89928 2.38911 -2.40326 -0.19319 1.10088 -0.84339 -0.45708 -0.53024 2.31885
239 -2.43911 0.55143 -2.77032 -0.94811 1.66374 -2.79926 2.0527 0.53456 -1.80111 -0.12547 1.42061 2.58713 -0.32415 -2.12095 0.31893 -0.11757 0.07997 1.50721 -2.00102 0.52654 -2.24608 1.02964 0.97049 0.98215 2.05199
240 -2.94018 -2.48194 -1.80197 1.17817 0.54643 -0.08891 0.08039 2.42889 0.89857 -1.70613 -1.3195 -2.93975 0.73812 -2.01 -2.41628 -2.6192 -1.35334 -1.28175 0.02248 -2.88445 -1.73281 -2.87 2.8211 -0.2735 0.67773
241 -2.85341 -1.36373 -1.99203 -2.52833 1.76297 -2.94353 -0.44987 1.00197 1.65348 -2.99697 0.12698 0.90709 -1.53393 -2.70803 0.3926 2.39018 -0.21759 -2.21589 1.64407 -0.3134 0.29544 0.19224 -0.50801 -2.04797 1.30777
242 -1.62895 -1.56817 1.50565 1.13274 -0.73727 -2.27794 0.40199 -2.3824 2.50217 -1.57937 -1.75516 0.57511 1.35286 0.0239 1.45928 -1.34854 -2.65127 0.34241 -1.04733 0.64132 0.05237 2.52125 0.81914 -1.56928 0.11453
243 2.25622 0.76972 0.11993 -2.80647 -2.91225 1.44609 -0.93911 1.16582 1.90775 -1.39298 0.74675 -2.33516 0.33529 -1.06709 2.74371 2.41042 -1.50141 -1.67625 -0.46426 2.10915 -1.56823 2.05862 -0.98176 -0.41574 -2.27716
244 -0.22657 1.29893 -2.76953 0.89448 -2.58539 -1.9311 -0.07592 -1.47764 2.01467 1.88178 0.04315 -2.71442 -0.64362 -2.10123 -1.30584 2.86346 2.43333 1.97067 1.12661 0.73732 2.07153 1.70498 -2.77296 -2.36586 0.58589
245 2.73256 0.34154 2.60051 -2.40268 -2.00327 1.32385 0.59923 2.59247 1.67182 -2.79774 -2.25313 -0.97145 0.95887 -2.93887 0.93173 -0.76784 -1.8836 1.96103 -1.6587 2.00776 -2.65997 0.53231 -1.08532 0.13688 -1.37245
246 -1.16223 -2.44504 -1.41868 2.86018 0.99595 0.89221 2.01586 -0.43069 -2.56918 1.29213 -2.29152 1.64817 1.82781 -1.26349 1.14464 -1.77904 -0.07957 2.12756 0.46153 -0.86812 -0.61381 -1.11409 -1.66488 -1.29203 -1.14091
247 0.94987 1.57768 -0.44392 -2.81352 -2.07641 2.33403 1.50995 -2.29118 -2.22609 1.01956 -2.09021 -1.1453 -1.36857 -1.22301 -2.93785 -0.11866 2.74835 -1.12091 -2.56747 -2.55936 2.14065 0.64446 -2.52135 0.09137 0.89704
248 1.88057 1.01618 0.26947 1.1557 -0.60768 -1.63017 1.14277 -0.8872 -1.64941 -0.26991 2.95805 -2.00781 0.13403 2.98173 2.9516 1.97977 -0.33029 -0.06573 -1.30283 1.48121 -2.31669 2.93233 -1.24998 0.89139 -0.12238
249 2.56056 -1.46296 2.9018 -2.31943 -0.36651 1.52584 1.32697 -2.13351 0.6621 -0.75893 -1.55221 -1.54677 2.15102 -0.37314 0.12796 -0.84236 2.68312 -0.76576 -1.74954 2.4429 2.14414 -1.62306 1.64065 1.73217 0.28283
250 0.54934 1.37916 -0.20824 0.93203 1.06764 0.61799 -2.91459 -1.34548 -1.98428 -1.03035 0.49165 -1.66209 1.23777 -1.74 -0.79052 -0.00223 2.30708 0.07196 1.8695 2.60773 -2.84928 -2.13265 2.3103 -0.69698 0.31631
251 -1.10928 0.09876 0.25831 1.18482 -1.24851 -2.73341 2.61263 -2.7606 1.9825 -0.16295 0.94118 -2.7871 -1.42604 -0.68397 1.81545 2.03161 -2.30903 -2.27273 -1.04612 -0.56995 -0.06169 2.1189 -1.40961 0.89163 -1.35088
252 2.59817 -1.51093 -1.90805 2.97168 -2.38694 1.04843 -1.65999 1.69183 -2.00351 2.39314 -2.98657 1.86299 0.11086 -1.98665 1.20535 2.15845 -2.57684 1.6092 -1.83881 -2.35866 2.84716 -2.86684 1.21525 1.32201 -0.62927
253 -2.70276 -0.32899 -1.08171 -2.90647 -2.68514 2.73176 0.94943 -2.69177 -1.98249 1.72794 -2.87838 -0.80579 2.13046 1.75723 -2.47541 0.40131 -1.14779 2.56859 -1.43365 0.63417 0.36979 -2.3728 -0.05377 1.79087 -0.69984
254 2.78391 -1.83791 0.74041 1.85046 2.76289 2.58417 -0.35999 -1.51436 2.18007 1.94199 -0.99616 1.7415 -2.44779 1.86261 0.80161 -2.19515 -2.7909 2.15113 0.94848 2.55534 -0.86212 -0.33598 -1.29884 1.1297 0.91201
255 0.67793 -0.56262 1.69902 2.33022 2.15419 0.87607 -2.03492 0.62131 0.35336 -2.5345 0.37351 -0.79644 -2.5236 0.8084 -0.06755 -0.75046 -2.50579 0.13741 1.68946 0.76423 2.63134 2.96496 -0.1431 0.12748 0.70683
256 0.51256 1.16379 -1.79722 -2.38175 -2.07564 -2.27575 -0.33873 0.76717 1.40803 -0.92079 -0.67584 -1.93623 2.4242 -2.34779 -1.94094 2.47018 0.94776 -1.78586 0.89328 2.39228 -1.24984 -0.28857 1.55985 1.19108 -2.44943
257 2.30921 -2.674 -0.48062 -1.64242 -0.65851 1.24402 0.65414 -0.05781 1.03333 -0.11427 -2.70444 -0.88563 -1.86022 2.31877 0.92658 -0.75267 -1.31363 1.52808 1.97862 -0.38014 -2.55759 0.24752 -0.72705 -2.60986 0.66198
258 -1.81041 2.72987 2.61899 -0.9685 0.58272 2.41932 1.75902 2.53501 2.36279 1.42269 1.04177 -2.8856 2.73563 1.83525 -0.89829 0.57687 -0.76891 -2.58974 0.59893 -2.91646 0.07789 -2.9217 0.84656 -1.14148 1.60169
259 -1.0777 -0.54623 2.19326 -1.23603 -0.30274 -0.12432 0.53405 0.66542 0.93382 1.913 -1.49709 1.99903 0.03258 -2.37704 -1.75509 1.10352 -0.34427 -1.95465 -1.45036 -0.05076 -0.12018 0.96845 -0.54733 -2.15634 -2.01732
260 -0.22114 -2.0877 -0.59273 -1.45569 1.20252 2.09407 -0.33679 -1.46981 -1.71535 -0.41967 -1.88718 -2.64722 -1.20852 -0.86878 0.73741 1.41093 -2.99943 2.90411 1.97572 2.54236 0.50723 2.55879 -2.69644 -1.10671 -0.12361
261 0.2064 1.22701 -0.65958 -2.59692 -2.59054 -2.25888 -1.44436 -2.0506 -1.12224 -0.90604 -0.42834 -2.57368 -1.11411 1.78065 -1.6482 -1.88434 -1.52411 -1.32501 -2.35476 1.48155 0.91089 -0.14236 -0.43378 -0.90083 0.24766
262 1.53037 0.42448 2.25711 0.74155 -1.11173 -1.89373 -2.93916 -2.48037 -2.29938 1.25803 0.03383 0.71219 1.70737 1.40185 1.25102 1.77841 -2.59592 2.62838 1.55633 -0.76775 2.09958 -1.55885 -2.91134 0.82789 0.80469
263 -2.86783 -0.36979 1.57861 -1.21515 1.58228 -0.17044 2.74741 1.20767 1.13099 2.33409 1.42391 0.41949 2.00299 -1.85547 -1.79216 2.26058 -0.96704 0.7828 -0.67355 0.48836 -0.55855 2.95769 1.85208 -0.85557 1.89578
264 -1.87049 0.50694 -1.57211 1.93867 0.00138 0.86534 -2.91688 0.82006 1.27258 -1.18362 2.27879 2.99302 0.37693 -2.60672 -2.73018 -2.28985 -1.61962 2.96635 -2.24067 -2.24112 2.63905 -2.14442 -1.21405 1.02612 2.1827
265 0.67333 1.13226 0.29143 1.24794 -2.17234 2.54811 -2.81004 -0.42877 1.71915 0.90109 1.44616 -2.42217 1.7681 -2.89211 -1.06807 1.32574 2.81945 -1.07283 2.02074 2.42105 -0.44014 -2.7864 0.0374 -2.54056 1.22273
266 -2.63413 -2.88993 -1.48455 -0.35212 -1.32802 0.51871 1.72208 -1.7182 -0.04259 2.61017 -0.27256 -0.30426 0.89096 1.9327 -2.7475 -0.34649 2.64382 2.94706 2.428 1.88235 -2.02302 0.2163 2.49362 -1.55945 -0.19911
267 -1.40526 -1.93017 -2.23889 -1.469 -1.10978 -0.67545 -1.74052 0.89359 1.76556 1.81995 -1.43052 0.79457 0.00473 2.92291 -0.78219 -2.81333 -0.86412 -0.49583 -1.98945 -1.55254 2.24082 0.00108 -2.61718 2.06086 0.34569
268 1.43974 -0.12758 0.92619 2.75087 2.51041 0.64318 -1.959 -1.49002 0.22419 -2.70606 -0.81008 -0.19418 2.51251 2.54942 -0.76423 2.30793 -2.74292 1.91699 0.50053 -0.17618 -2.07503 0.50254 0.2682 2.83024 0.43723
269 2.04069 -0.33009 1.3899 1.53131 2.42007 -0.01174 0.28952 1.06252 -1.14987 -1.74855 2.63355 -2.65108 -1.7959 -2.29459 1.26321 -2.20715 -1.62824 2.8582 -2.10796 -1.64796 2.1344 1.19043 0.26247 -1.02795 -1.54243
270 -1.51099 -0.01246 -1.10312 0.53925 2.34833 -1.44593 -2.08723 -0.17352 -2.1136 -0.56315 1.35241 -2.3468 -0.59907 -0.90163 2.48686 -2.19047 -0.00637 1.32902 0.02649 -2.65305 -2.61376 1.10655 0.82312 2.44735 0.71642
271 -2.73472 0.08786 -1.43316 -2.42719 0.05031 -0.43769 -2.65939 1.42729 -0.65771 2.24612 1.95308 1.32279 2.85352 1.67981 0.80794 -1.75782 -0.26854 -0.78967 2.10006 0.22153 2.53771 -1.39919 -2.98137 -1.50182 -1.48984
272 -1.819 2.24265 -0.65963 -0.52481 1.70647 0.74763 -1.62188 -0.70935 -0.14418 -0.44933 2.95535 -2.53436 -2.59697 -2.10771 -0.09221 0.11039 -0.25354 0.51525 2.16577 1.6772 2.87075 -1.41878 -2.93749 -0.36913 2.76411
273 -1.51286 -1.9679 0.96318 1.24478 1.98483 -1.2683 0.22305 -2.54685 -2.89842 -2.32642 -2.82316 2.68616 2.13185 -0.28613 -0.77346 -1.03762 -2.94211 -1.92798 1.27915 -1.89499 -2.79533 1.07534 2.53014 -2.03545 2.23399
274 -2.55356 -2.17498 0.44432 1.38804 2.90854 2.01936 -1.6282 -1.94914 2.62954 0.56317 -1.77503 2.06402 2.11977 -2.80829 -2.36396 -2.36951 2.37286 -2.04639 1.7061 -2.24932 -2.83038 -2.84946 2.05434 -1.46726 -0.23048
275 -1.37909 2.58773 2.51458 0.86916 2.51919 1.66912 1.20457 -0.27792 -2.25686 -0.76476 -2.90533 1.21853 -2.4309 0.68918 -0.26392 1.71415 -1.18281 1.45235 1.13231 2.52382 0.07676 -2.46889 1.86957 2.0162 -0.70633
276 2.62511 -0.76365 -0.88527 -0.78784 -2.00792 0.46841 0.68816 -0.72717 0.41937 1.25695 1.35843 -2.3801 -1.27928 -0.32496 2.55848 -2.86492 -1.02843 -2.09994 0.96375 2.09659 -0.66432 2.79529 -2.01286 0.00565 2.3995
277 -1.73768 0.51181 -0.31677 -1.74584 -0.96811 0.57555 -2.3288 1.94752 0.64268 -0.68257 -2.59806 0.82348 0.32393 0.79954 -0.91487 -2.7622 -2.44532 0.94148 -2.3221 2.89703 -2.16381 -0.48788 -0.64026 -1.38104 1.50477
278 1.79399 0.64319 -0.70988 0.18679 1.62091 2.34549 -1.67742 1.41733 1.00976 2.0914 -2.71327 -1.40215 0.96394 2.14819 -2.17531 -0.00221 2.04625 1.38647 0.72497 1.91744 -0.6684 1.56106 -2.99435 -0.11605 2.01268
279 0.57914 -2.04236 -0.79722 -1.99961 -1.79042 1.5109 1.44761 0.86829 -2.26347 0.14732 -1.13616 2.19788 -2.6831 1.83783 -2.58726 1.3373 0.55602 2.69982 1.50722 0.03493 1.87164 -1.13445 1.97236 -0.1479 1.23695
280 2.22955 -1.82651 0.22813 -0.54004 0.52752 0.25414 -1.1252 -2.38023 -2.29951 2.3015 -1.24215 2.84814 -0.31635 -0.9865 -1.88092 0.95441 -1.76692 0.99793 0.35785 -1.15458 2.88936 0.74602 -2.82819 0.41658 0.68038
281 -1.08008 -1.49311 -1.55439 1.54025 2.12379 -0.40672 -2.24102 1.04889 2.73408 1.35504 -2.39865 1.5073 0.71614 -0.11742 0.25482 1.10402 2.94254 2.80489 -2.64259 0.52271 0.293 -1.15695 -2.91097 -2.55103 -1.2076
282 1.11746 1.86182 -2.15151 1.23934 -2.07966 1.87126 -1.14798 0.34177 1.50765 0.45896 0.47596 2.69693 -2.50011 -2.33152 1.08576 -2.46064 0.77082 -0.55416 -2.58835 -0.80319 -2.67596 -2.1512 -0.28592 0.23035 -2.55789
283 -1.27815 -0.33853 -0.42275 2.67208 -1.03131 -2.8214 0.45065 2.38435 1.17296 -2.55054 0.58205 0.84906 2.84679 2.54486 -2.318 -1.72003 -2.95164 -2.53264 2.96318 -1.95622 -0.99221 -2.32989 2.62671 -2.22542 2.91622
284 1.95471 1.39448 1.89238 -2.77482 2.54387 0.66306 0.86697 2.5084 -0.43687 0.41079 -1.00992 -0.52152 1.41265 -0.03522 0.37491 0.08227 -2.10771 -2.28258 -0.87742 -2.32487 2.74738 2.07644 -0.7153 0.29068 0.34555
285 0.61357 0.17273 -2.94538 -1.81422 -1.3625 -1.21245 0.77556 -0.30336 1.32477 0.55556 2.88504 -2.98794 -0.09995 0.96698 1.42445 0.69762 -2.04365 -1.31562 -2.25736 1.22642 2.2118 -1.84155 1.61388 1.70447 0.96998
286 -0.4816 1.37366 -2.1188 2.00006 0.14535 0.97699 -0.54713 2.39263 -0.37419 -2.02303 -1.46496 2.64033 -2.4244 -2.96558 -1.78736 -0.25806 1.74757 -1.25496 1.13564 -2.37627 -2.89671 0.74411 2.49821 1.99506 2.16776
287 2.95556 1.83833 -2.51155 0.87854 -1.72025 1.50257 -2.4809 -1.20506 1.41921 -2.2513 -0.29186 0.86037 -1.39794 -1.46441 -2.05877 -2.5516 1.41142 0.51159 1.28073 0.80373 -1.7001 -1.34248 -2.30625 -2.44046 2.58612
288 -1.95559 0.38544 2.78323 -0.46837 -1.40646 0.03242 1.16745 -2.64302 -1.07772 -1.44002 -2.85169 -1.12989 1.49958 0.43728 -0.00461 -1.96674 -1.06326 1.26806 0.62627 -2.26192 2.775 -0.61888 0.96852 -0.24618 0.6706
289 -2.0084 -1.42894 1.60433 -0.93501 -0.14139 2.34303 -2.23088 -2.35637 -1.58777 -0.26419 -0.47377 0.01979 -0.12889 -2.55572 -1.74403 -0.25293 2.33961 -1.74408 2.0397 -0.85179 -0.54732 -0.33515 -2.48777 -1.99027 -2.23774
290 -2.01988 -1.90178 2.03761 1.52226 2.14576 0.7315 -1.97812 2.4404 2.67769 -1.73584 2.09403 2.31555 -0.59773 -2.34831 2.96109 0.36597 -0.02456 -2.30735 2.87105 -0.0003 1.41455 2.55627 2.12864 -2.35748 -0.68736
291 2.76635 1.53667 0.20281 -1.93614 2.1693 0.31059 2.77026 -0.5627 2.60074 -1.584 -2.11427 2.13398 -0.85289 2.00393 -2.93801 2.592 0.48876 -0.37387 -1.31315 -0.88026 1.52994 -2.60194 1.8775 1.22318 -0.57544
292 -1.85586 -1.49503 -0.21644 -1.74679 0.95527 -1.31208 0.63346 1.58948 1.8227 2.20478 -0.46923 -2.69113 1.23127 1.34555 -0.62079 2.32265 -2.62028 -2.19725 0.5123 2.97959 1.21555 1.65753 -1.23166 0.51157 2.37366
293 0.83773 -0.85955 1.9387 1.05391 -2.30655 -0.33601 0.11331 -2.8226 -1.94106 -1.51023 1.50495 -2.23251 -1.85643 -0.74751 2.78554 1.09452 -2.56623 0.72116 -2.61276 -0.05687 -2.25402 -2.46576 -1.37114 0.69083 1.19893
294 1.99902 -2.72506 -1.70109 1.85038 -0.27846 0.31568 -1.1649 2.50717 0.20677 -2.93117 -0.19902 2.28969 -1.76704 0.01648 -1.1388 -0.02437 -0.56543 -2.51271 0.57803 2.83458 2.29898 -1.75301 -0.26783 0.01323 2.59208
295 -0.47518 2.40741 -1.45022 -0.90661 0.71954 2.09146 2.14032 -1.23413 -0.2365 1.95111 -0.18765 0.56234 0.12631 1.46315 2.9869 0.81209 -1.99961 -2.99179 2.47516 -1.13894 -0.59688 -1.94738 1.39312 -0.59386 -0.8188
296 -2.40134 1.07792 2.06052 0.35304 -1.66054 1.13978 -1.73966 -2.35697 2.94123 -1.54285 -2.58336 -1.06824 -0.93401 2.135 1.50997 1.13166 2.12429 -0.93974 -2.04779 0.53881 0.48148 -1.96168 -1.72928 -0.48061 -2.54812
297 -1.30768 -2.85425 2.8279 0.58439 -0.09853 -0.14965 2.12674 2.50264 2.24518 -0.9987 0.23917 0.68653 -0.07156 1.11056 1.56911 1.2959 2.59295 -1.16388 0.72441 0.11322 -2.33815 1.53154 -2.19472 0.01898 0.52337
298 1.23057 -2.5962 -1.95396 1.93165 -0.13993 -0.13563 2.5565 -2.11532 -1.63958 2.27799 1.44177 -0.77467 -0.00762 1.90954 1.79936 2.17046 -2.13815 -1.33247 0.24724 1.81589 -0.96097 -2.96691 1.87748 2.25262 -0.82725
299 2.69937 1.54059 1.74365 2.70214 1.71658 2.88457 -1.17517 -2.90913 -2.16268 0.08804 -2.65899 -2.2157 0.54855 1.38136 0.83541 0.68705 -0.89969 1.06453 -2.42931 0.60447 0.6551 2.94676 -1.61872 -0.51634 -1.39247
300 1.96347 -1.44519 0.71225 -1.19095 2.75471 -2.73986 2.53244 1.55505 2.66755 -1.19582 -2.14907 2.10439 -1.38927 0.6916 -2.1499 -0.67452 -1.46838 0.09359 -2.27031 0.36499 -1.83823 -1.38779 -1.9234 2.09156 0.54769
301 2.97393 -2.31955 -0.23318 1.64916 -0.30167 -2.25126 -0.42648 2.95263 -2.97571 -2.53562 1.4982 2.68894 -2.29646 2.89808 -1.7134 -0.79748 -0.72366 1.3397 -1.07465 -0.86341 -1.17622 -1.40047 1.05928 0.71168 -0.34861
302 0.44854 -0.47972 -1.51729 1.76593 2.922 0.60499 -1.34623 2.02356 0.0837 2.4694 -1.05524 2.60872 -0.95231 1.11387 -0.88905 0.30922 -0.75838 1.67757 0.16368 -2.66979 -1.19696 1.43204 -0.37394 1.81885 0.41577
303 1.37473 -2.63396 -2.33829 2.20139 -1.31677 1.64215 0.30056 0.39884 0.32045 2.21734 -1.27653 1.4905 -2.61396 0.04488 -2.93919 -2.76103 1.5752 1.15155 -0.06921 -0.46418 1.27708 2.20058 -1.55136 0.89872 -0.86449
304 1.17156 1.96233 -1.16599 0.98289 2.4035 -1.95057 -2.47134 -2.8676 -1.5596 -0.07917 -0.61149 -2.44955 0.28853 -2.13862 0.14195 -0.74624 1.86878 -0.24023 -1.20375 2.47066 2.33844 -0.75906 2.51678 2.19841 2.7175
305 1.72237 1.16525 -0.91088 2.04204 1.15163 -2.23804 0.47105 -0.42159 2.00436 -0.11806 -2.36413 -0.53538 0.32533 2.15103 -2.65213 -2.76429 -1.42586 -0.35359 -1.4957 -1.17622 -0.77039 1.59061 -0.58195 1.59058 1.76181
306 -2.5789 -2.75704 -1.69229 1.58501 2.3125 -1.67708 -0.96324 -0.5114 1.86313 -1.17102 -2.07783 2.30247 -1.1643 0.65905 1.33601 0.57088 2.96195 2.554 -1.71778 0.71688 -1.62463 -1.47147 -0.87443 -0.64337 2.86913
307 0.73592 -0.54245 0.20342 2.69714 -1.26853 0.45419 -2.31152 -2.86095 2.10232 1.67038 2.81639 -2.02734 -2.2894 0.14144 -1.69327 -1.53553 -2.76718 -0.93204 -1.47067 0.77307 2.32402 0.33902 -2.58714 -1.06595 -1.58839
308 -0.71409 -2.26353 -0.37546 0.35245 2.52299 -0.58707 2.52674 2.63758 -2.39204 1.43271 0.4398 -2.88093 -1.83466 -2.45992 -0.69875 -1.74515 -1.20358 -2.96833 -2.37628 -2.67404 0.12514 -2.08568 0.10485 0.48999 -2.49464
309 0.48639 -0.28833 1.50754 -2.04367 -2.23533 -0.03876 1.29769 1.47621 2.6175 -0.72532 -2.05968 -0.22069 -2.57685 1.39196 0.82738 -1.46897 0.5391 -2.35792 2.8434 2.86037 1.5159 -1.50985 -0.95016 -1.39636 2.58816
310 1.86235 1.24279 -0.63328 0.23221 -0.98737 2.24869 0.8582 1.5216 -0.68418 -2.28559 -0.10771 -1.35619 0.85562 0.7455 2.73706 1.76108 -2.31281 2.25222 0.05426 2.25664 2.15231 2.16279 2.70095 0.96257 2.29861
311 1.08167 0.34431 -2.81403 1.21605 -2.153 1.35954 -1.07518 -2.76443 2.20778 -0.62855 0.57256 2.60135 -1.89631 0.76227 -2.34327 -2.402 1.29932 -0.27706 0.72694 -2.32532 1.41173 0.37464 -2.77044 -1.11988 2.64086
312 0.49848 1.8104 2.65219 -2.28851 -0.60597 -1.07529 2.2118 -2.79776 -1.59947 -1.67786 2.01179 2.90892 -1.24046 0.31603 -1.49297 2.1496 -1.35026 -1.33053 1.41413 -2.16676 -2.53846 1.83874 1.41159 0.94533 1.41641
313 1.79765 1.44823 -1.3515 1.5491 -1.84148 -0.62207 -2.16961 0.6654 2.47227 2.37141 -0.70372 0.37875 -0.05535 0.91708 1.31333 0.19458 -0.17374 1.03304 0.19721 1.64932 1.62125 -2.14947 -2.23219 -2.41855 2.17213
314 -0.13115 -2.44114 0.0171 -1.91977 -1.98418 -0.96533 2.43616 -2.93849 -1.6444 1.65978 1.83176 -0.68768 2.1609 0.73103 -2.98737 1.79239 1.42883 -0.59856 0.68084 -0.30504 1.46055 -1.30053 -2.09672 -2.71617 -2.52081
315 1.28018 -2.0842 2.91639 -0.82062 1.32442 2.80943 -0.04086 1.60455 -0.47847 1.72713 2.9538 2.23597 0.95148 -2.47381 -2.12473 -2.34414 1.18424 0.19073 0.37173 1.3 0.33162 2.03427 -1.12139 -1.43538 -2.71664
316 -0.91837 -2.45401 -2.21612 -0.78608 2.93164 -1.35519 -0.58002 1.65706 -2.63114 -0.21264 -2.01272 -2.07008 -0.80196 -0.18489 2.34131 1.58141 -0.18993 0.86557 -2.2704 -0.87037 0.30339 -0.17691 -0.66344 -0.85158 1.07076
317 -1.90882 0.51823 -2.63623 1.66067 2.09383 0.02547 -0.48522 0.43037 1.27149 0.77946 -0.24658 0.53394 0.6628 -2.25395 -0.68557 2.12832 -0.80027 2.90181 0.00944 -0.61864 2.10036 0.75484 2.21125 0.3001 -0.85144
318 2.81059 2.03856 -0.49553 -0.48371 -1.89543 -1.07659 2.10478 -1.61056 -0.15229 -0.60669 -1.54247 -0.52929 2.552 2.36262 -1.64793 0.39477 0.45541 -1.57159 -2.10555 -1.89201 -2.13516 2.29972 1.02845 1.20167 1.37114
319 -1.79302 -2.54972 1.85208 0.57098 -1.90112 -1.85421 0.25314 2.3617 -1.60026 -1.45414 1.92413 -1.34333 -1.81782 -1.92162 1.47081 -1.28608 0.26349 1.03892 -1.10779 -0.20693 1.77704 -0.01241 2.81922 -2.52773 -2.3741
320 -1.37615 -2.6793 2.76157 -1.82497 0.05298 1.24819 2.66529 -1.17445 -0.47397 1.87711 2.90575 -2.13089 -1.6764 2.00346 -2.25492 -1.90833 -0.09978 -0.11969 -1.75429 2.08982 1.31501 0.4671 0.08791 -2.89341 -1.8127
321 2.11062 -2.91494 0.79639 -0.00536 -1.86696 -0.05278 1.664 -2.63675 0.05653 0.05821 -0.44128 -0.45012 2.02992 0.82765 -2.54174 0.6767 2.28706 0.53339 2.9639 -1.75959 0.19638 -1.70342 -1.26549 -0.89161 1.27792
322 0.07206 1.02367 2.01842 1.62692 -2.3167 2.21683 1.8908 -0.88401 0.25343 -2.55252 1.3659 1.98552 2.089 -2.31315 -0.49294 -2.29497 0.82216 0.3313 -1.72805 2.1293 -0.85001 1.49468 -2.47467 -1.68727 -0.37397
323 -0.37361 2.42472 -0.14437 1.75066 1.49626 -2.58528 0.55243 0.85773 2.05989 -0.23753 1.21742 -0.03209 -0.86293 -0.20977 -1.25296 1.80454 -2.01272 -0.57348 0.93994 -2.81952 -0.57221 1.09854 -2.28878 0.57679 -0.00413
324 1.06552 2.30897 2.27876 2.3764 -1.84319 2.12878 1.66162 -0.95014 -1.89756 -2.0856 -1.56574 -2.7183 1.07093 -1.7674 -2.05411 -1.52125 -1.16856 1.53852 -0.28371 -1.04462 1.20878 -1.83687 -2.05227 0.97542 0.2154
325 -2.34721 0.26624 -1.36644 -1.0925 -0.70285 -0.78334 -0.74496 -0.52456 0.98762 -0.73562 2.81796 2.15326 -1.0908 1.36915 1.47666 2.50379 1.7255 0.43001 2.23907 2.13466 1.5206 -2.39771 -2.46255 -1.34785 2.35462
326 -2.48727 1.11036 0.35082 -0.71209 1.19355 1.25215 2.32158 -0.71873 2.76093 1.20747 0.98649 -2.65116 -0.21051 -0.63783 0.97846 -0.57138 1.86119 -2.92492 -2.91393 2.73593 1.72988 -2.95364 -0.3767 2.93569 2.66271
327 1.69319 -2.4368 0.76333 2.59894 -2.51935 -2.56848 -1.46336 -1.57147 -1.75037 -2.8852 -0.42065 -1.08977 0.67034 1.78188 -1.31838 2.26535 0.10555 -2.92493 2.54282 -0.92856 1.48575 0.45682 -1.81874 -1.89001 2.75562
328 -1.66547 -0.65988 2.10433 2.76743 0.66628 -2.71912 -1.95614 -2.27167 2.3143 2.93036 -2.75761 1.62781 2.64734 2.05754 -0.85162 -2.50129 -1.36713 -2.98776 0.13712 1.75474 0.24221 2.97667 -1.80692 2.38094 -0.72392
329 -0.11175 1.72872 -0.30179 1.57082 -1.46569 1.83067 0.5585 -0.79315 -2.10301 0.01404 0.71591 -1.4489 -0.50225 0.88305 -2.1326 -0.71099 -2.80305 -2.24549 1.30641 1.74936 2.56697 -1.29666 1.22714 -0.24251 1.47691
330 2.94038 -1.81018 -0.70779 -2.06933 2.28962 1.22173 -0.43879 0.45677 -0.45878 0.32621 0.03529 0.7246 -2.91052 -2.18384 1.31896 -1.59411 0.60302 -0.46007 1.94974 -0.33844 0.42403 0.08285 1.12683 -0.63085 -0.33442
331 -2.85456 -2.49213 0.27495 -1.30793 -1.27597 -2.90667 -1.74448 0.80909 2.60469 2.69553 -2.19706 2.88933 -0.3134 1.77344 0.77726 1.81859 1.49136 1.31472 -2.09066 2.24838 2.26872 -1.32487 0.4948 2.4561 0.31113
332 0.33454 -2.90459 1.74218 0.97883 -0.53951 -1.05647 2.90291 2.66892 -2.49231 1.38725 -1.93442 -0.97399 -0.93284 0.35964 -1.84046 2.0158 0.48506 2.83144 2.99177 1.83645 -2.93427 -0.52716 0.31001 -1.717 0.45184
333 -2.81565 2.73053 -1.17979 -1.94733 2.12936 -2.81622 1.68422 -1.23007 0.59625 0.30189 0.95983 -2.2593 -0.42386 2.43176 -1.01532 -2.60506 -1.3176 -2.11444 -0.66614 -2.89482 -0.51284 -0.92601 -2.45823 -0.27535 2.83254
334 -2.45484 -1.12059 0.11405 1.03514 -2.25295 0.19664 0.63941 -0.53836 1.03055 -2.90399 0.6211 1.53528 -1.92436 2.38279 -0.3313 -2.56114 -1.57725 1.19101 -2.74519 1.19639 2.27593 1.83599 -1.32464 -0.24223 2.91277
335 2.64267 1.74689 1.14933 -1.05791 2.36698 -1.63107 1.74087 2.27658 2.64232 -1.55492 1.05573 1.63895 -2.28513 2.17819 -2.4808 0.14589 -0.49576 1.98391 -2.63329 -2.66786 2.57614 -0.84801 2.6908 2.73967 -0.04543
336 -1.29177 1.71897 0.34008 -2.80706 -0.29382 -1.79371 1.22823 -0.69228 -2.34825 -1.04364 -0.59404 -2.20133 -0.65348 2.43483 0.17164 -2.09674 0.1197 0.96535 -2.59101 0.37736 -0.96646 -0.55627 2.72853 0.91658 0.68172
337 -0.48615 0.71525 1.53109 -0.3943 -2.14858 1.65212 -1.42289 0.50621 1.84396 -2.21251 -0.19767 2.73881 2.51257 1.49424 -0.34348 -0.60799 -1.76866 0.95889 -1.36087 0.70196 0.95206 2.38932 -2.18621 1.04045 -2.56418
338 -0.8423 -0.98172 -0.55537 1.18712 -0.33259 -2.81099 1.967 -2.56971 -2.06429 -1.29184 0.75764 0.04106 1.5238 2.40297 -2.43864 2.5137 1.82988 2.58846 2.34241 -1.34419 0.05287 1.55721 0.17772 2.64923 -1.46852
339 1.54799 2.57763 -0.61 1.87616 0.23805 -2.67686 -2.81807 -1.48779 1.10238 -0.26812 -1.38688 0.92859 -1.81023 1.89711 2.84699 -2.75481 -2.61042 2.20943 -1.1711 -1.6478 -1.01553 1.92857 -1.38108 -1.72297 0.28311
340 2.44241 -1.1539 0.08574 1.73529 1.20882 1.03092 -1.68165 -1.08824 2.11522 -2.97327 1.63033 -2.29434 1.00498 1.83234 1.48086 -2.26377 1.49562 -1.21446 -1.04889 -2.93141 1.67611 -1.80908 1.64162 -0.93671 0.99689
341 2.11122 0.7307 -1.96317 -0.65456 -1.76472 0.66281 2.73084 -0.65427 1.18913 2.95573 2.61905 2.74381 -1.18049 -2.63073 2.11846 0.88351 0.68584 -2.52822 2.56652 2.31528 1.87844 -1.92313 -1.35063 0.77185 -0.69328
342 2.69203 -0.49876 -1.5907 -1.15278 0.33053 -1.15896 -1.35739 1.71909 0.98946 -1.45957 -2.44533 2.79379 2.96587 1.45172 -0.29339 0.70345 0.53083 1.99333 -1.19056 -0.938 -0.3458 1.15408 -1.41975 -1.75922 -1.11933
343 -1.54577 0.99049 1.93273 -0.5537 -1.84288 1.73401 2.10464 1.44631 -1.05685 -2.71048 0.34325 -2.37679 -0.22156 0.87446 -1.46285 -1.80786 0.61225 2.15898 1.53729 -0.0918 -0.84878 0.15166 -1.08656 -0.4293 2.19209
344 1.67134 -1.35086 -2.26937 1.58034 1.62108 -0.51369 2.52711 0.40978 -0.83128 0.00046 -0.88223 1.53616 1.06339 0.37567 2.55265 1.6008 -2.68969 1.6831 2.58395 1.3569 -1.78903 1.40132 0.2849 2.73653 -0.53689
345 2.57245 2.25601 -1.46584 -0.79096 -0.8409 -0.09143 1.88216 0.18406 -1.34011 -1.2603 0.52193 -0.94691 -2.39728 0.51888 2.00163 -1.58099 2.23766 -1.27281 -0.73127 -2.70728 -0.40661 -2.87226 1.31314 2.5343 -1.21666
346 -2.86162 -0.84253 -1.41728 0.77421 -2.6443 -1.62877 -2.54051 1.97444 -2.65687 1.20444 -0.76673 -1.51496 -2.90974 -1.53184 0.05737 1.29642 2.94022 0.41001 -0.87333 0.26836 -2.09671 -2.72201 -2.22423 -1.14998 -1.27237
347 -1.25588 -1.40102 -1.69736 -0.95333 -0.06957 2.33051 2.14086 -0.0003 -1.19529 -0.58039 -1.11578 0.37695 -0.54502 0.21641 0.01398 0.23954 0.96941 0.04087 -0.97212 1.20675 -1.82548 -1.47466 -1.83174 -0.35336 1.36697
348 -0.59003 -2.15374 1.80221 2.6287 2.84592 1.5047 -0.38365 -2.20205 1.43562 2.88912 1.75215 -0.43853 0.74125 1.45355 2.24193 -1.14969 -0.77883 -1.43505 -2.45121 2.04809 2.69408 0.69122 0.13405 0.33432 -0.69655
349 2.88744 1.59064 2.3692 -2.81109 1.75188 0.90107 -2.71625 1.51463 0.18042 1.97125 -0.67173 -0.08368 2.16279 -1.96287 2.3495 2.68612 1.75733 -2.73227 -1.02386 2.39388 -1.85961 -2.54028 2.88441 2.88919 -1.68247
350 2.79128 1.13611 0.06127 -0.30527 2.28727 0.25141 -0.14703 1.01029 -2.00958 0.89581 -1.33308 1.49817 0.47389 1.93755 0.45985 -2.25205 2.16862 2.61095 0.71571 0.52827 -2.38944 0.24505 -2.77976 -0.4575 -0.74984
351 1.94248 -1.14168 2.34714 0.77885 2.08748 2.056 0.54124 0.17704 2.42077 1.43715 -0.62512 -0.74075 -0.88356 -2.9442 -0.42479 2.86422 0.40707 -2.51346 -1.11303 0.36547 -1.45428 2.65744 -1.08334 -1.47756 -2.53276
352 -2.72253 -1.7742 0.42952 -2.53174 -1.96276 -1.90859 2.41197 -2.76865 2.80083 -0.54883 1.7359 -2.29203 -1.28254 -1.63677 -2.24052 -1.53827 2.16144 1.83724 -2.4286 1.16122 1.24041 -0.5584 -1.88777 -0.43993 -2.45216
353 -2.70376 -2.46852 1.91415 2.72669 2.41534 -1.72416 -2.15995 2.61384 1.7947 -1.92926 0.66761 1.10325 -1.13423 -1.53044 -2.84338 -2.29424 -0.31055 -1.85444 1.48503 2.62048 0.67811 -2.77448 2.32867 2.44578 -2.00251
354 -0.34072 0.09431 1.95301 -2.71724 0.01165 2.62229 2.40689 2.06442 -0.33863 0.7705 1.92605 1.19694 2.1868 0.76792 2.11106 -1.80284 0.81073 2.92466 -0.10745 -0.98943 1.93525 2.91255 -0.94222 1.1691 0.59057
355 -1.14908 1.89442 0.94764 1.19601 -1.84032 0.16117 2.44846 0.11709 2.48844 -2.73812 1.74726 0.0724 -0.02742 -0.38572 -1.28229 0.73993 1.18553 -2.9611 2.43211 2.18008 1.38048 2.95083 1.94454 2.3771 -1.25632
356 -2.1241 1.59778 0.66834 0.97688 2.92241 -1.35022 1.62412 1.62593 1.97718 -0.20245 -2.34793 -1.88527 -1.66561 -2.73223 1.54016 -2.38361 1.86243 2.90034 0.9853 1.10262 -1.90788 -1.58001 2.30852 2.18056 -2.83426
357 2.25052 -0.69438 -0.41379 -1.33384 0.56486 0.46466 2.93018 -1.80954 -0.23418 -1.75945 1.01399 1.41611 -2.45159 2.14174 2.70561 -2.13771 0.60008 -2.74572 -2.78485 1.49846 -2.57138 0.34645 -0.40316 -1.65581 2.32663
358 -1.43626 -1.1508 -0.26035 -1.13859 -2.68251 1.48009 0.05679 1.95665 -2.49922 -2.94837 1.12356 -2.92645 1.07661 2.16545 -1.41018 -2.97307 1.24547 -1.87692 -0.52617 -2.02945 1.63923 -0.3558 -1.77591 0.20042 -2.14432
359 0.50584 -1.92365 -0.40945 -0.52134 0.39799 1.62998 0.06865 2.17922 -1.56474 1.23931 1.84276 -1.82388 1.59674 -1.97991 -1.15207 -1.50262 1.91753 -0.07407 0.03608 0.95803 1.00785 -0.54468 2.79839 -2.12444 0.41009
360 1.97111 2.93255 -2.22422 0.95733 2.27101 0.26222 1.867 -1.57755 -2.76966 -1.16738 -0.38439 -2.47453 -0.80797 1.36975 1.72838 -1.49043 -1.50876 0.8058 -0.13484 -0.7887 -1.69943 2.94796 2.47434 -2.2048 -0.94304
361 2.27519 1.32608 1.19681 -1.85591 0.33953 -2.46067 0.22647 -1.52481 1.00599 -0.75239 -2.28965 0.05839 1.62994 1.07856 0.17865 -1.01014 -0.0267 -2.38526 2.07001 -2.42588 2.6959 1.7298 -0.10658 0.24507 1.32276
362 -2.27429 1.29556 -0.57648 1.07757 -0.42863 -2.9953 -0.5605 -2.20684 -1.39992 -2.51522 1.43619 2.83545 0.11655 0.33773 -1.09938 -2.54647 -0.31828 0.0939 1.19554 0.87171 0.12809 -0.79774 1.62581 -0.43468 2.65972
363 -2.66787 0.02081 0.7282 -0.90013 0.32878 -2.4179 -0.58776 -0.76076 0.13508 -0.57078 2.7664 -2.57428 0.10594 0.17113 -2.24208 -0.21819 -0.215 -1.12236 -0.12242 1.93943 0.3555 0.5089 -1.91248 -2.41865 -2.69489
364 -1.45132 -2.63431 2.67497 -1.06137 0.69219 0.58473 1.23714 0.99755 -2.20271 0.0913 2.66059 2.08695 0.92633 -1.4277 1.46376 2.22487 2.32179 -2.92469 1.69675 0.49315 -1.42351 0.09786 -1.71461 -1.99565 -0.48494
365 1.59421 0.4624 -1.22589 2.43746 -2.04011 -2.79994 -0.36867 -0.61091 -2.4931 -1.16284 -2.04518 -1.24379 -0.61243 0.34019 -2.65516 -2.08148 -1.20117 -1.93859 2.21476 -0.14623 -0.73281 1.40146 1.63752 0.32508 2.27021
366 0.49643 -0.52812 2.93326 -2.29938 1.97934 1.96919 -0.43838 -2.92834 -0.15943 -1.70617 -2.01086 -2.27475 -1.39174 0.37163 2.0158 -2.38423 -0.51878 1.94681 -0.62911 -2.05832 0.01644 2.71408 -0.24982 -2.4057 2.51345
367 -0.38335 -2.08813 1.24465 2.31365 2.63194 -0.4007 2.39411 1.93052 -2.41178 -0.96626 -1.0508 -2.67286 -2.11889 1.1995 2.45887 0.49744 1.89837 2.48391 -0.24144 2.42884 2.3606 2.5125 -1.76472 0.38117 -2.06078
368 -0.40883 2.76164 -2.2798 -1.42526 -1.1893 2.33524 -0.52726 1.72121 -1.19825 0.46421 -2.07218 0.04324 -1.80643 -1.37425 -2.20299 -1.44529 -2.5918 -1.1486 1.51927 2.45656 1.26328 -1.57366 -2.24745 -2.09276 1.27196
369 -0.32287 0.83458 -0.5263 -0.80427 -0.82915 2.58903 0.80868 2.38614 -2.03796 -0.10638 2.0664 0.1272 0.64801 -2.33614 2.30461 -1.82757 0.93678 1.45153 2.08245 -0.67516 2.31806 -1.84997 -0.26867 0.88852 -0.62146
370 -1.89906 1.15552 0.10804 -0.63659 -0.88969 2.06954 1.90256 1.87633 2.20104 -2.3801 -1.79361 1.306 -0.70362 -0.78296 0.31342 1.41533 -1.63003 0.57957 0.66821 1.73373 2.84797 -0.69483 -2.26541 -0.75281 1.2785
371 0.07095 -1.37719 0.92382 -2.28472 2.13545 1.68985 -0.42857 2.13271 1.86888 1.2164 1.99639 0.63587 -0.51714 0.94353 1.86273 -1.48077 1.38927 2.24257 0.00854 -1.62675 -0.04568 1.9417 1.98009 -1.85148 -2.32816
372 0.53303 -2.77597 -2.90267 -0.8199 -0.5712 -1.76977 2.02301 0.79661 0.38139 2.74778 -0.72383 1.0633 -0.01868 1.69618 -2.35546 1.08359 -2.71746 -0.88024 -0.06499 0.06428 -0.16744 2.8821 -1.66212 -1.97173 2.80989
373 2.05917 1.03908 0.92088 0.10052 2.2702 0.74602 -0.38102 2.75067 2.44914 0.4169 0.83625 -2.43782 -1.39989 -1.07529 -1.86823 -2.61162 1.50119 -1.30327 -0.55972 2.57322 2.00027 -2.91173 0.63327 2.98311 1.32267
374 -1.31902 2.13694 0.0004 -0.5672 0.5519 2.25848 2.42942 2.94576 -0.17812 -0.23439 -0.49325 -2.02793 -1.28569 2.423 1.79898 -2.05566 -0.57073 -2.94034 1.304 -1.99753 2.53803 1.50939 1.65835 0.06863 0.62925
375 -1.24859 0.63455 1.15645 -0.32432 -2.72558 0.3713 -1.12449 -2.42504 2.72734 2.71266 0.10261 -1.74939 -2.94333 -1.23444 0.66529 0.10252 -0.48987 -1.41298 -1.4909 -1.4389 -2.51547 1.92898 -1.3016 2.65868 -2.33382
376 1.54655 1.40077 -2.76833 -2.9208 -1.83464 -2.15933 1.94218 -2.03708 -0.50066 0.96354 1.25224 -0.75732 2.86604 2.47694 2.83383 1.42293 2.98597 2.40447 -0.16668 -1.05237 2.55848 -1.16969 -1.17439 1.43752 0.46596
377 1.23387 2.57752 2.21451 -2.74617 1.11373 -1.11132 -2.73776 0.91684 2.35222 2.18169 -1.02448 -2.04697 -2.07017 -0.91143 2.47135 -0.84055 2.32673 -1.03634 1.13959 2.13283 1.5325 0.09268 -2.64004 -2.01603 -2.59995
378 -2.40115 -2.0447 -0.03307 1.68516 2.66968 -2.87923 -0.61999 0.37647 -2.28596 0.92444 -2.08726 -0.58654 1.37131 -0.02655 0.96666 1.07917 2.90567 -0.47961 -0.7527 1.56127 -0.77891 -0.32488 -2.97683 0.72848 -1.08061
379 -1.69786 -2.83956 -2.38601 2.49068 -1.39672 1.63408 -0.58521 1.18444 0.29858 -2.77884 0.13421 -0.25233 -0.74136 1.37366 1.43413 0.15211 -1.11635 0.54996 -0.5458 1.54587 -2.24421 -0.5557 -2.24472 -0.03801 0.25102
380 -1.40307 -2.26614 -2.22167 -0.88447 -1.24415 0.63134 -0.62151 -2.94335 -0.96051 2.82289 2.91605 2.01733 -2.93755 -1.63419 1.08074 0.95529 -0.26744 -1.78495 2.28593 -0.12915 -1.1418 -1.44557 0.68096 -1.9342 -1.232
381 -0.65915 2.41726 -1.66816 0.50089 -0.90305 2.33483 0.12659 -2.00775 0.97107 -2.83843 -1.42202 -0.77902 1.0201 2.15226 -1.72171 -0.16595 -2.31554 -2.36077 0.08863 1.55217 -2.16235 0.25022 0.81579 -1.17955 -1.14733
382 1.7027 2.87009 -2.3316 1.61558 0.35486 2.6356 -0.33263 0.23795 0.05538 -0.8476 -0.04443 2.32919 0.79072 -0.48678 2.04813 -1.61401 2.55652 0.60325 2.73635 -2.16631 -0.80816 -1.73002 -0.01232 -2.16393 -1.8673
383 1.74272 -2.63849 2.78533 1.35232 -1.8307 -1.94958 0.07126 -0.77869 2.28798 -0.16693 0.33274 -0.29381 0.80377 -1.46396 2.24117 1.62765 0.55665 -0.66361 -2.78352 0.95342 -0.12302 0.05542 -2.23222 2.04594 -1.52252
384 -0.80739 -0.27966 0.20965 -1.21137 -2.0503 -0.36587 -2.44049 2.14167 2.19651 1.85087 -1.49244 -2.70481 2.37061 -2.713 0.41399 2.71788 2.79375 -2.72484 -1.83466 -2.56315 -2.63545 1.71249 1.82986 2.77858 0.84342
385 2.66191 2.82304 -1.91429 -0.93643 0.55657 -1.70893 -0.2553 1.01673 1.96335 0.05683 -0.81115 -0.89284 -0.371 2.73109 -1.46977 -2.84932 2.01615 -1.11906 1.00169 -1.74565 2.47468 1.88993 1.43406 2.34606 1.47045
386 0.45365 2.11546 0.07356 1.71644 -2.03684 2.06557 -0.21841 1.22344 2.90287 0.85517 -2.97686 2.28746 -0.82089 0.91977 2.07176 0.23631 0.0714 -0.78513 1.47396 -0.66951 0.37644 2.34858 1.93239 -0.6332 -0.81619
387 1.09585 2.18727 2.59498 0.87298 -2.65425 2.71243 0.72042 -0.22168 -1.62472 1.04585 0.70857 1.37486 -2.31059 -2.23651 2.94022 -1.44964 2.98629 1.87864 1.88472 1.67168 1.90983 -2.64652 2.96939 -2.17586 1.08497
388 2.97858 -1.36413 2.81414 2.4858 1.83152 0.55272 2.18522 1.0839 -0.92439 1.44035 -0.17422 0.25809 -1.25217 -1.60973 2.05766 -1.42542 1.34546 2.68622 1.44488 2.50001 0.05555 -0.61935 1.90056 -0.72759 -2.01746
389 2.4785 -1.62894 -0.44586 -2.02407 0.61191 -1.50096 1.89102 -0.53549 -1.81933 1.56747 -2.49726 -0.76864 0.66461 -2.49655 -0.78155 -2.05855 -2.82963 -2.3992 -1.34583 -1.47162 -1.28589 -2.1307 2.5216 2.09809 1.87297
390 -1.49915 -1.77193 -2.27892 0.53954 -2.83642 2.29463 1.65009 -2.92462 2.53782 -1.10708 2.36166 -0.62595 -0.34421 -2.61475 -1.51428 2.80627 -2.39435 0.78634 2.80074 0.29509 0.02057 -1.1797 -0.28381 -0.03999 -0.69239
391 -2.60679 -0.33722 1.49542 2.03146 1.54984 0.90358 2.71116 0.7972 -2.82795 2.08302 -0.77816 -2.73153 -2.52987 2.34518 -1.44959 -2.07571 2.26619 0.23009 1.80132 0.25203 -2.61654 -1.94981 1.31525 -1.39293 -1.22921
392 0.54154 1.61748 0.88713 -0.4319 2.82006 -2.93161 -2.84109 1.00726 0.10614 -2.56147 -2.47797 -1.116 0.13141 -0.54134 0.14093 1.15002 1.44834 -2.03701 0.93121 -1.67498 2.09775 -0.55248 -2.08541 -1.32375 -2.55527
393 2.80224 2.19449 -0.2205 -1.97854 2.48839 -0.55224 -1.27321 -2.23453 0.66402 -2.74172 1.72365 0.9627 2.06492 2.02558 1.92032 -2.62184 -1.15199 -2.9001 2.75475 -2.95055 2.82283 0.39736 1.36474 2.6652 -0.76987
394 -0.1079 -1.0466 1.3059 -2.57958 -0.76161 -0.82334 -2.46326 2.69662 2.68359 1.41636 1.41741 0.79462 -2.75397 1.17839 0.61622 2.72618 -2.442 -1.87034 1.19738 -0.5955 1.86151 1.63132 -2.92218 -0.30797 0.39385
395 -0.91392 2.59076 -0.77548 2.22488 1.82788 -1.302 0.90344 0.77311 2.87121 2.88166 0.72495 -0.44164 0.8496 -0.57074 2.98882 1.0636 2.41696 -1.55301 0.48913 2.32176 -0.38064 0.86497 0.81981 0.05733 1.48256
396 1.92316 1.4243 0.05841 0.61729 2.77305 -1.12681 -2.66763 1.89001 -0.88848 -2.5007 -2.01344 2.63075 1.80045 -0.72706 1.49361 -0.58975 -2.59225 -2.81205 1.25773 0.64079 1.81824 -0.50204 -0.96219 2.35035 1.18732
397 -2.19653 -2.28458 1.31953 0.87496 -2.16706 2.69546 2.3957 -2.09135 -2.81246 1.25666 1.12133 -0.12321 -2.87915 -1.30167 -1.40305 1.14576 -2.56402 -0.62962 1.22772 -0.51995 -1.94606 -0.41359 2.6285 -0.20519 2.69666
398 1.7606 -0.7475 1.9801 -2.78412 0.23774 0.29226 0.52009 -2.69634 -1.28492 2.18626 -1.74769 -1.08381 -2.40834 -0.81883 -2.26295 1.95648 2.66668 -1.32958 0.14191 2.57606 -2.43829 -0.63442 -2.95285 -1.15925 -1.52708
399 0.72507 2.90831 2.81468 2.21833 2.2916 2.80282 1.38739 -1.46781 -2.43892 2.56797 -1.82348 2.25229 2.47475 -1.6398 -2.05752 0.04236 -2.82689 -1.0424 -1.89218 0.45442 -1.97641 1.99913 0.90582 2.86861 -0.11269
400 -0.19569 0.16506 -1.44878 0.58026 -1.90947 -1.1965 1.98043 1.15076 -1.99321 -1.69066 0.56908 -2.67953 1.46228 0.26289 -2.19769 0.74998 -0.2988 -2.2865 0.43918 2.7221 -1.06299 -2.74825 -2.86953 -2.47112 -2.60285
401 -2.66572 -0.64283 -0.66382 -2.99262 -1.95098 0.66343 -1.80609 -0.69191 0.53023 -2.92014 -1.67804 2.87085 0.25255 2.05854 -2.50948 2.64911 1.60497 -1.94719 -2.83561 2.45956 -0.63598 -2.86767 -2.8959 2.97597 0.12497
402 -1.78954 1.56101 -1.19715 -2.84865 -0.18378 2.94458 -2.70256 1.97549 -2.03222 -0.0425 2.81302 2.88099 -1.29538 0.86503 0.69577 -2.24606 0.18615 -0.09095 2.62893 -1.44324 -1.25757 1.77465 -0.18012 0.96684 0.80838
403 -1.73686 -0.98846 0.7508 -2.9476 1.06615 2.24811 -0.45866 -1.36368 -1.19445 -2.79982 2.58567 1.01349 2.86931 -2.56729 2.9944 -1.90626 2.09023 2.99212 0.525 0.22842 -1.17093 2.75591 -1.89761 -0.91715 -0.89261
404 -2.5525 -2.98085 2.9506 -1.99502 -1.76556 1.402 1.08071 -1.22019 -0.48162 -0.37595 0.18292 2.32793 1.14306 1.00267 2.38695 0.06857 -0.50818 -0.48221 1.20544 0.3028 1.8714 1.18535 2.51762 -1.1604 -1.20653
405 0.02963 0.67445 0.13003 0.74192 2.22605 0.21843 0.99714 1.32992 2.82697 1.66196 0.42499 1.75875 0.89554 -2.97289 1.91487 0.61412 -1.45655 -2.81539 0.35356 2.64493 0.40462 2.87431 -1.83935 -2.41393 -2.14744
406 0.27265 2.03699 0.94777 0.80644 0.95269 1.83591 -2.16813 1.00721 0.70967 2.09941 0.34502 1.3805 -2.16929 -1.88317 -1.34166 0.72026 -2.9903 2.49197 0.58831 2.76388 -2.40131 2.42667 -2.7934 -1.89102 0.54149
407 -2.97175 -0.05103 2.71707 -0.39864 -1.22569 -0.77639 -2.19798 -1.12939 -0.70233 0.89919 1.29213 1.3649 2.0458 0.33121 -1.0938 -0.05873 0.0609 0.2799 1.07512 0.25882 2.88126 2.78998 -0.51276 0.92606 0.92296
408 1.3521 -2.03505 -1.38437 2.52372 2.3763 2.39636 2.02945 1.84459 1.73894 2.58315 -1.59492 -2.23494 -2.44379 1.2041 2.63385 -1.14009 2.28658 -0.32949 0.04264 -0.23356 -0.17328 -2.48669 -1.30197 0.00086 -1.66044
409 2.50633 0.23129 -0.76965 2.07462 -2.64677 0.56933 -2.77365 -2.8471 0.69147 2.78489 0.32315 2.23011 -1.90676 1.16358 -2.86203 1.95433 -0.51861 2.48887 -2.01929 1.67 -1.58704 1.54618 -1.64016 0.06427 0.53753
410 -2.05447 1.62453 -2.01261 -0.31547 1.74078 -1.94837 -2.37011 -0.5406 0.80802 -0.71538 -2.27155 1.35658 0.65398 0.42531 0.52335 0.96504 1.18512 -0.80263 1.57041 1.80812 -0.66315 -2.91647 2.28933 -1.975 1.08233
411 -2.07322 0.17514 1.25878 0.68399 2.56928 2.11415 1.95424 -1.89879 1.15832 -0.94346 -0.87765 -0.90373 2.54366 0.08957 -1.99551 -2.33859 0.33001 0.75265 0.7586 1.41853 2.19 0.21114 -1.73937 -0.39185 -2.68124
412 -0.95408 -2.32731 -1.6439 -1.39938 -0.55967 0.89986 -2.48733 2.59812 -0.03175 2.04254 0.94399 -0.5709 -2.35216 2.60397 2.82122 0.91088 2.52977 -1.06961 -2.47098 1.24148 0.83647 -0.89885 -2.3327 0.19606 -0.34347
413 -1.13049 -2.27072 1.57602 -2.76843 -2.68349 2.7455 -2.7195 2.4847 1.93331 -0.79451 -1.21056 -2.92697 1.4407 -2.51709 -0.40013 2.19299 1.15474 -2.93305 2.47546 0.99534 2.60072 -0.31856 -2.93308 -0.00909 -2.09921
414 1.43364 -2.45724 2.84707 -1.93759 2.51947 1.74272 0.15226 0.84709 2.79684 2.85211 -1.96404 0.69721 -2.35035 1.29568 -1.48251 2.83464 1.90631 2.85806 -0.73024 2.92745 0.91959 -1.41008 2.72803 -2.10972 -2.40474
415 -2.84803 2.83196 1.36001 -1.00861 0.04818 -2.27417 -1.87553 1.70363 1.33835 -0.88758 -0.51707 0.8674 1.02661 -0.43412 -2.75901 2.72294 -2.85979 -1.17269 0.10961 2.62929 2.24238 -2.46981 -0.03626 2.10578 -1.93644
416 1.13885 -2.75349 2.96916 0.75159 -0.16277 -2.08669 -1.54747 1.0629 -2.25483 -0.03611 -2.23396 0.51015 2.03736 -0.88991 -0.80455 0.66341 1.20984 -1.01556 -0.70646 0.71844 -1.58658 -0.90175 1.7531 -2.27137 -1.23413
417 2.23606 1.08544 2.11632 -2.84908 -1.7226 -0.70306 2.27104 2.70335 -2.57565 1.97898 1.98988 -1.66104 0.57883 -0.45277 2.32327 0.76868 2.47071 1.91889 -0.55159 -2.26816 -2.66963 -0.23142 -0.07149 2.6046 -2.62793
418 -2.55857 0.23355 0.68117 0.48567 0.04911 -0.11755 1.10146 0.32344 1.74372 -1.14117 -0.15526 -1.82236 2.10948 -2.47102 1.18544 0.36609 1.5194 -1.22851 1.25045 -1.13453 1.0737 2.16214 0.87009 1.25708 -0.34012
419 2.20839 0.03809 -0.35368 -1.93325 0.89307 -2.47704 -2.51833 1.27974 -0.53074 0.70484 1.20619 -2.14316 -0.29277 -0.04521 0.88408 -2.98096 0.88888 -1.25711 1.92376 -1.57895 -1.9485 -1.64763 -0.41008 0.6743 -0.08351
420 2.7343 -2.74476 -2.87944 0.06923 -0.28971 -1.97196 2.52874 -0.82859 2.44253 0.96406 0.46752 1.68969 -1.72234 -1.98012 0.0735 2.81038 -0.27177 -1.16456 1.20893 0.22193 -1.10731 2.98653 -1.27993 1.72906 0.99926
421 1.38643 2.42956 0.77231 0.64668 -2.11389 -2.33549 -1.36458 2.00205 -2.02791 -2.47042 2.43067 1.45111 1.04844 2.57371 -1.81941 -1.80722 2.86054 -2.94564 1.66695 -1.14862 -2.962 2.84157 0.09425 -2.37941 0.35351
422 -1.20902 -1.82111 1.43476 -0.96725 1.48137 -2.50639 -0.69273 -1.98511 0.32546 0.07993 -2.69172 2.71403 -0.53983 -2.97562 -0.71482 0.49849 -0.28391 2.91551 0.21826 -0.53741 -0.4764 -2.7095 -0.8141 2.49017 -1.45249
423 1.6357 1.71303 -0.31417 -2.44238 0.51576 -2.83482 -1.93101 0.78066 -0.87153 0.01271 2.24717 -0.94915 -0.59962 -1.07086 -0.56601 0.5644 0.33696 -1.10887 -0.49747 0.33114 0.39841 -0.38559 0.9184 -2.30715 -1.38868
424 2.30408 -2.80325 -1.85324 0.17858 2.4948 -0.91971 2.36565 -0.30559 2.64782 -1.56723 -2.60174 2.10588 -0.28547 0.7746 2.96606 1.65296 0.3993 -2.15576 1.68462 -2.11489 0.26718 0.98584 -0.10633 2.44016 1.32881
425 1.02716 0.84592 1.0692 -0.88376 -0.06709 0.80061 -2.51557 -0.01521 -0.4819 1.52176 0.84765 2.93181 -1.7913 -2.4866 -2.94181 2.36045 -0.36409 -0.75655 2.62265 -2.92962 -0.19377 -0.48522 -0.13381 -0.5955 -2.99119
426 -1.40162 -1.61515 -2.87088 0.53302 -1.73621 1.16016 -0.86543 2.29159 1.82247 0.87054 -0.31786 -2.59561 -2.99922 2.30276 1.62609 1.56823 0.32406 1.19175 2.06055 2.59356 0.4904 1.4649 1.43434 -0.19936 -1.39948
427 -0.56258 1.98396 2.29401 -2.58142 -0.35633 -2.88029 -0.66502 1.7036 -2.72136 2.4292 2.85402 -2.70437 -2.77307 -0.40753 -0.6017 0.93972 2.64607 1.02398 -1.38715 0.38728 2.43599 -0.14836 1.37341 2.90562 -0.88413
428 2.64229 -2.93684 -1.94413 -2.6237 -2.77978 0.04635 -1.80569 1.02948 -0.21529 2.83854 -1.92707 0.67825 -2.56237 -1.91011 -1.24838 -1.92441 -0.91945 0.93842 -2.47773 -2.3495 2.11431 -0.716 -1.52667 2.63798 -1.63067
429 1.94345 1.18175 1.70267 -2.03658 0.71264 -2.06337 -1.17709 -2.57897 2.5812 -1.89376 -0.29067 -2.51312 2.15613 -0.92289 2.76257 -2.81832 1.79997 -1.13981 -0.0179 1.61729 -2.13468 0.46699 -0.76799 -1.84598 -2.08623
430 0.76082 -0.07825 0.11376 0.9235 -1.9434 -2.50564 0.12539 -1.2483 -2.85613 -0.50999 -1.16201 0.293 -0.30192 2.4709 0.0503 2.86371 -0.47724 -1.02945 -0.56263 1.82387 2.12552 -0.89452 -2.02801 0.31923 -2.32438
431 -1.55528 2.34054 -1.33855 -0.6056 -0.13165 0.1495 2.82943 -1.56857 1.3309 -2.48103 1.03293 1.51402 -2.18387 0.20975 -2.20562 -0.64294 0.06762 -0.27659 0.47248 -0.58466 2.29077 -1.57506 0.74558 -0.92148 -1.12876
432 -0.20839 -0.83175 2.56619 -1.89011 -2.57456 0.05338 0.74852 -2.86308 -2.11056 -0.85128 -1.10434 2.53001 -2.13885 2.40177 -2.86996 1.01297 -2.57495 -0.02686 2.20814 1.11595 -0.9832 -2.46872 -1.87456 0.41948 -0.11948
433 2.94237 0.86865 -0.45626 -0.03951 2.49859 -2.51703 0.7857 2.92944 2.60547 -0.50406 1.70839 0.30915 -0.91411 -0.895 0.56425 -2.61334 2.61068 -0.91941 -1.07558 -0.87911 0.07936 0.10642 -0.29188 0.51684 0.97734
434 1.38211 1.60572 -2.15205 0.38285 1.78387 -0.22103 -1.64046 0.90704 -1.44685 2.73734 -2.1371 -2.76526 0.26248 1.59412 2.2679 2.71186 -2.31872 2.78231 0.81869 -0.89963 1.52055 0.31267 2.30834 2.45455 0.55654
435 2.91651 -2.64993 -2.76455 -2.3378 1.16033 -2.59819 2.03594 2.22755 -2.23234 2.35219 -0.22367 2.76069 0.48854 2.39898 -1.95338 -2.34135 -2.76638 0.83918 1.58176 2.4047 -0.85229 -0.66175 -0.35255 1.23715 -1.13757
436 -1.99915 1.80984 2.44232 1.76272 -1.91384 -0.26913 -0.44205 -1.60133 2.82619 0.26371 -2.46969 1.48449 1.54733 -0.46936 2.01539 -0.39834 -1.40022 -1.31936 -0.45154 -1.46455 -1.34636 -2.51983 0.53043 2.43811 0.72814
437 2.46127 1.70618 -2.32067 -2.06983 1.23839 -2.76243 -0.21385 1.02069 -2.92665 2.86202 -2.49397 0.20576 -2.78651 0.91972 -2.25494 -2.1654 -1.39322 -1.48985 0.41134 0.6182 -0.32138 -0.16665 2.39272 1.2533 1.06807
438 1.31983 -1.61995 0.46882 1.20402 -2.84816 -0.8874 -2.05049 -0.1865 1.32203 -1.90707 -1.01006 -2.7692 -1.08687 -1.29508 -0.67695 -1.79265 -0.89981 0.59216 -2.99701 2.31432 2.72497 1.90106 -2.96261 0.04654 1.3204
439 -0.21317 -2.7051 0.30739 -1.65234 2.74998 -0.84621 -1.09864 2.55328 -2.4181 -1.34657 -1.50017 -0.90753 -0.31683 1.49274 -2.45917 0.19299 -2.51491 -2.80455 1.1958 -1.18049 1.53851 2.78477 -2.75712 -0.02411 -1.45958
440 -2.54023 -1.85927 -1.52253 -1.73544 1.28229 0.03531 -1.69819 1.39688 -1.17436 1.9804 -2.63402 -2.88419 2.96355 -1.97892 -1.59539 2.24389 0.01867 0.63818 -1.83076 0.6045 2.04775 0.30661 -0.00079 1.69608 -1.15716
441 -2.91422 -0.10701 -1.22527 2.43002 0.31359 1.29171 0.51897 2.05617 2.6248 0.00501 -1.09599 2.94275 1.81602 -1.79851 2.47752 -0.60688 -2.39053 2.39733 -2.95338 -1.92886 2.84704 1.87098 -2.07318 2.84047 0.73353
442 2.39094 -1.00339 -1.98417 -1.9001 1.87824 0.49078 2.76898 -2.22178 -1.99569 1.23014 -1.20599 -0.1786 -2.62188 1.79931 -2.77944 -1.67395 1.91495 -0.66868 0.17263 -0.04141 -2.83477 -1.53488 -1.22472 -1.76266 0.58873
443 -0.43396 -0.69351 1.23365 1.20306 0.34409 0.39761 0.47226 -2.01757 -2.30009 -1.0388 1.00393 -1.12856 1.72801 -1.44828 -0.73201 -0.24877 2.19245 0.43048 -0.27555 1.88615 -2.04176 0.02032 -2.18655 1.41497 1.30816
444 1.87988 2.98786 2.03514 -1.20065 0.36935 0.88205 2.56973 -1.23077 -0.48178 0.27827 0.96441 -2.00431 1.03591 -2.74601 -0.08615 -1.21219 -0.82492 -2.31934 -0.9789 -2.7144 0.67891 1.3723 -2.41236 1.99075 2.45346
445 1.11874 -1.36435 1.11144 2.77079 -0.37227 1.52998 0.03753 1.88588 1.57209 2.36327 -1.25936 1.96674 1.72414 2.57233 -0.3667 -2.87842 1.3502 -0.55327 1.39032 1.34656 2.63475 1.16429 -2.19468 -0.95146 2.45224
446 2.70848 0.84413 -0.87408 0.64759 -2.58608 0.41697 -0.11474 2.51476 2.93109 -2.74 1.14818 -2.84317 2.75181 -2.66121 -0.78723 1.16543 2.96624 -0.46804 -2.12106 -1.80783 -1.32294 -2.65698 -1.81607 -2.39879 -1.69501
447 1.8101 -0.95752 1.16539 -0.9877 2.58503 1.44916 2.2149 -0.98804 -2.71283 -1.29598 0.19299 -1.60112 2.81272 2.66034 1.60727 -0.34066 1.63068 2.8135 1.10214 -2.978 -0.50458 -2.13475 1.40019 2.9298 -1.20115
448 0.41912 1.44951 2.12875 2.22516 -1.82073 -2.76083 -0.31992 -0.33781 -1.30248 0.6326 2.48462 -2.99574 2.31906 0.6222 -0.29091 1.94645 -1.66749 -2.6635 0.75512 -2.98285 0.44462 -0.06962 -2.72856 -0.66719 -0.05918
449 2.81164 -1.65742 -1.84506 -1.39977 -1.78588 -1.23137 1.44054 0.86953 -0.30932 1.5269 -1.44294 -1.61172 -1.9892 -1.91527 -2.34192 2.3787 -0.40103 -0.45315 -1.22474 -1.78817 -2.71445 0.43474 -0.13004 0.57145 -1.93057
450 2.26092 -1.63084 -1.79652 0.31022 -0.34235 0.45071 0.46723 -1.35146 2.05885 -0.05303 0.21144 -2.34346 2.05052 0.82431 -2.918 -2.40076 -0.3646 0.37657 -1.02994 -1.98574 -0.73769 0.532 -2.94699 -0.37639 0.96205
451 -1.09544 2.20152 0.32949 1.562 -0.07743 -1.03334 -0.73789 -1.07964 0.89614 -0.42642 -2.88552 2.21454 -1.35096 2.32545 2.47719 2.25067 0.34084 0.51269 -1.39591 1.28929 -0.97555 1.26851 0.05071 0.17982 1.68599
452 -1.69167 2.43509 0.80833 -2.4058 1.46592 2.09535 1.00339 2.58581 -2.41348 -2.63271 -2.77467 2.07253 2.76544 2.1859 2.4499 0.2343 2.07909 0.84139 1.50615 1.02229 -0.75954 1.49941 -2.39509 -0.14704 1.52284
453 -0.57255 2.02031 -1.96816 1.9169 2.98198 0.43422 1.70749 0.50653 0.39576 2.53332 -2.4449 0.06928 1.43603 -0.78222 0.81541 2.33083 -0.17682 -1.6637 1.05285 2.56551 -2.84068 -0.39096 -1.72111 0.42338 -1.99404
454 -0.87847 2.14021 2.29424 1.99467 -1.97353 -0.61874 2.83501 0.30507 -0.49623 1.72378 2.1447 -0.30763 -0.78272 1.97194 -0.94218 0.81674 2.12632 1.63829 -0.29095 0.20581 2.39783 2.72958 2.23035 -0.91625 2.42946
455 1.65291 -2.86509 1.97122 2.67223 1.49374 -2.70386 -2.50487 -2.38332 0.72601 -0.77606 2.01009 0.61328 2.3901 -2.95586 -1.4299 2.71592 -0.731 1.1535 -1.45695 -0.16957 2.34317 -1.30826 1.40557 2.3682 0.43006
456 -2.30744 0.45358 -1.97417 0.78926 -1.59519 2.13733 0.90556 -2.32091 -1.49389 1.21844 0.4578 -1.33746 0.09066 -2.92251 0.88041 0.50668 2.00917 1.85729 2.61773 -1.60375 -1.85593 -2.27282 0.11495 0.39122 -2.22946
457 -1.12143 2.38869 -2.53378 0.10859 0.8819 -1.04819 -2.12381 0.89139 0.14937 -0.24594 0.64653 -0.77909 2.49359 -0.26487 -2.31037 -0.15832 1.10222 2.78217 -1.94827 0.40563 -2.7776 0.57129 1.47834 -1.60593 -0.04934
458 1.96515 1.64025 1.06535 1.91878 -2.54926 -2.41968 0.66586 -2.36573 -2.98419 1.23797 -0.16426 -2.38478 2.88462 -0.50225 -0.51949 -1.47762 -2.51309 -1.90429 -0.16086 1.70301 -0.61348 -0.29417 -0.16736 -1.53999 -2.19139
459 -1.61191 -0.75518 0.32906 2.42587 -2.46333 1.96445 0.74109 0.49017 -2.26032 -1.43672 -2.68566 0.55972 0.55458 0.92426 2.64829 0.82555 -1.15511 0.29872 -2.24438 0.26475 2.25755 1.18159 1.71853 2.73943 2.38259
460 -2.92541 2.43749 -0.53181 -2.91847 -2.27556 1.71005 0.85177 -0.68043 1.89126 1.95677 0.0174 -1.84492 0.9388 -1.02527 1.97135 -1.82996 1.23354 -1.09112 1.63387 -0.717 1.05113 -1.32554 2.43938 -0.24307 0.97483
461 2.45599 -2.53704 -2.53087 -2.85791 1.38808 -0.64299 0.13557 -2.41611 1.90427 -0.09886 2.97682 1.02522 -0.61694 1.42329 2.31593 1.06354 0.76849 0.40473 -2.72829 0.7343 -1.01254 -2.66524 2.86696 -2.69417 2.34257
462 0.63438 -0.65892 -0.91239 2.91228 1.90149 -2.57916 -0.53974 -1.01114 1.43221 0.47353 -1.54705 -1.95041 1.90468 -2.99701 -2.36359 -2.56437 -1.17605 -2.62655 2.87815 2.17533 2.69006 -1.43581 -0.64561 -2.0296 -1.45523
463 -1.29069 1.53575 0.16329 -2.55151 -1.61028 -1.69227 -2.64664 -1.79843 -0.17588 1.3052 -0.27104 -0.93737 -2.32723 -2.07898 -2.73423 1.66784 -1.13146 -0.31007 -0.05833 2.25423 0.26375 -2.92997 -0.8307 0.57295 0.06028
464 -0.24693 0.72443 0.19432 -0.96901 2.3107 -1.48868 2.23792 -1.53803 -0.54704 1.92445 -0.74495 -1.93132 -2.63416 -2.2898 -2.45914 -0.54569 0.16208 -1.15551 2.87634 2.05465 0.19994 -2.25034 1.99682 1.05515 -1.91539
465 2.54056 -2.66134 -0.11439 1.53117 0.05397 2.55589 -2.95271 1.9696 -0.08343 -1.66451 -0.12762 2.68695 -1.7621 -1.15184 1.31842 1.80437 1.56571 -0.32862 -1.4545 1.03571 2.57853 -2.01371 1.78172 -2.45944 -2.71862
